{"version":"dev","number_of_layers":13,"layers":[{"name":"activation_layer_0","index":0,"weights":[]},{"name":"convolution_layer_1","index":1,"weights":[0.3534531192317929,0.8048076168760113,0.8739871098390888,0.8455309026556424,0.34679978022034999,-0.21599764911165029,-0.565173755971529,-0.8974486822661616,-0.8096747573924051,-0.18084534223780789,-0.2503154311966045,0.1815242853440379,0.07864393851155359,0.03643376885107188,-0.2945954211853581,-0.24567948305710719,-0.8146202519724048,-1.1494526233506269,-0.8312213630097182,-0.04107946628767892,0.5538336993794534,1.4329367679051013,1.239725971127091,1.097489894293035,0.1749699180578686,0.22124208127800949,0.8477025317578171,0.6730014347849005,0.7809246550351564,0.028865761297118137,-0.18764776686609387,-0.8570666610074164,-1.0582801166142054,-0.7433346184910851,-0.31230644985550329,-0.003521304732117464,0.34221766148943408,0.5168714399349285,0.25833539812737746,-0.05881628418886073,-0.24007635624112767,-1.0294167219201325,-1.571699368793068,-0.9318224875881086,-0.22313861504283756,0.4156830313031339,0.9993431068025871,1.1274560622752546,0.616634819155833,0.04403864761416804,0.07944816038896315,0.47671988575118087,0.6013497435833023,0.5747184317960934,0.15149307636482282,-0.2627071628140158,-0.6440554783575128,-0.8199864466853329,-0.6199548694898561,-0.30959448516977,-0.10254568379796422,0.24649222453093554,0.5760425899380302,-0.08962728278856735,-0.1352120275054368,-0.16564861244553534,-0.5826757090054874,-0.969036129891136,-0.6044912860560736,-0.13891646442147688,0.38508479863913566,0.7717143673070578,0.5107709829974726,0.5049893037889799,0.30000495315349487,-0.007565825993131003,0.17404497580629106,0.06380971053932382,0.2445020783588047,0.14323034445880368,0.2881647963662939,0.07655641007632348,0.15127034438405127,0.1917351415798035,-0.2840412429143573,-0.22817870590972059,-0.29673845554284886,0.19967795173594814,-0.0001148455592696361,-0.1587903791874958,-0.09035662179987429,-0.22189946309781095,-0.2178040485500639,0.4296924280132109,0.023186569757954486,-0.08542905947226695,0.0321037140437349,-0.027285929200086289,-0.047233460061910838,-0.10545564095855494,-0.3455894067529546,-0.33759579579774748,0.48108528948734627,0.03567349607810691,-0.07657155011646282,-0.4433956955995917,-0.2083961691822408,0.6405532349754266,0.6664303988452413,-0.0797905468319993,-0.3828200394896896,-0.7055537955258826,0.5964448275530833,0.590514036577159,-0.028662927973417634,-0.5227394902771938,-0.545550728869347,-0.2423654067240264,0.6096825086759886,0.1920495962775089,-0.3447203848278425,-0.3481238822223002,-0.4287626035684479,-0.277841547236792,-0.10913380238300276,-0.16395909096012158,-0.47286663936536529,0.4322241603614445,0.46390975449201268,-0.1331792146203368,-0.5531324564273681,0.008698999928230367,1.862793325676079,2.3945340591691157,0.9991530704673095,-0.33952454087611985,-0.5044965163204342,2.3334898422712615,2.870247060544269,1.2506324261211784,-0.0824184286982964,-0.20978456665014948,1.103882733010658,1.9770544013966294,1.3177551508712282,-0.009768524778183954,-0.13480283012782946,0.17947014013392138,-0.21840180183457845,0.14266788415578172,-0.38443718320683448,0.02207438261131596,0.009187400556629302,0.2739927466583805,0.3957327562174525,0.39403564371049507,0.3562511651747333,-0.43008936858401267,0.10175263156006768,0.21538801849328358,0.2559974559251702,0.22572188684307518,-0.15986987917065616,-0.7232894234026644,-0.49182652765688419,-0.08804902481907587,-0.07044578301767762,-0.032161704080241607,-0.1997203885857864,-0.41574758303845707,-0.07308113372547164,0.26247239613588649,0.18524450516546346,0.12524857561153364,0.13771483348614456,0.1812897615610239,0.2513365452350158,-0.49136857402136138,-0.21651584914777295,0.133290835277201,-0.23425755444038413,-0.09160543910820919,-0.7353091127246255,-0.7870227534322759,-0.9711670056973377,-0.7849271763259508,-0.5308337954883244,-0.6252820089859617,-2.6673439030938987,-2.0989483292684576,-1.1018599882122864,-0.3864540470545515,-1.0221104235754497,-1.683492164325456,-2.206462719597136,-0.7635580007421101,-0.3087463986587231,-0.4712361688066091,-0.8137454347429037,-0.8458699144407518,-0.050123321692328779,0.2899196542140374,0.16009078569744257,0.20821364489940392,0.3952159818343462,0.13825478947840906,0.2747789872344582,0.18033292666962698,0.23747605826018196,0.5815140603205965,0.2010298452953301,0.3420256773250474,0.5223746969746924,0.9409343933656942,0.7685430625814211,0.7563934488622202,0.6295015332456768,0.558820166192239,0.6116294333571388,0.7272856957045307,0.9933592265996195,0.6026209099235659,0.15445858379283707,0.5659268002141719,0.42255216578619439,0.38691976013579368,0.29751463152291127,-0.030116535349085425,0.03415352053509456,-0.03905277997484039,0.03157663246020771,-0.00249786559761203,-0.022363588783703069,-0.0036361318056212057,-0.03395677881575719,0.011073858606930597,0.0179110067273593,0.016461728373286977,-0.0024548673980476435,-0.006701401927734636,0.01834781192352052,-0.004763801938614356,-0.020456341436323575,-0.01067371428187933,0.0012760565037996997,-0.016159991572025354,-0.012592061505585636,0.022979487221975307,0.01532955145066239,0.012030868911546922,-0.011120994513745894,0.016714580719003708,0.012934244804937996,0.004542807804903409,-0.04064802263427439,0.006016452784912487,-0.02386944057500894,0.020365803098440505,0.021652863430851215,-0.021568752961488383,0.0033274856573759735,-0.02140946802700979,0.04453117660631864,0.02889664490880942,-0.026943302041922129,0.025790836466051065,-0.018730352589138665,0.0012103861368188527,-0.021160679352283049,-0.0035354360831368338,0.010348971791609587,-0.026116191977711268,-0.02866392821492355,0.0003805766454262438,-0.01762403098671902,0.02496225899240454,-0.008514687909350146,0.022716447328261087,0.037935884368746227,-0.02567536623376346,0.00566230964398389,0.01751068973283751,-0.01610937622051787,-0.008653886609750042,-0.02048646713723328,0.0041082833054794,-0.004585597033590493,-0.024704000047287679,-0.01796682219444767,-0.04238575921617877,0.04165895789926338,-0.010786747063181458,0.030267757405285094,0.03610280523500258,0.022280195043570096,-0.009586530637533356,-0.017730157497214059,-0.05427497412975612,-0.010240254360366155,0.011455260534775183,0.05993620209373798,0.019671210594766746,-0.015013533536341701,-0.3009018729699935,-0.07105119655126607,0.13203160561001429,-0.19112428849383579,-0.25637992911025189,-0.16545139837435914,-0.07047145445251633,0.04418569849359739,-0.281584247219048,-0.2809317064395379,-0.21736810561192194,0.15213293413446228,0.15832880309032938,-0.020210159274785125,0.09208406156184132,0.10441630821307978,-0.1668773869448464,0.16652046717151709,0.003404196255311709,-0.06896055585566072,-0.19843153985096496,0.044798614891678179,-0.15106300540586399,-0.07631210308852253,-0.005589164211146234,0.22426206774834626,0.9696601476759428,0.7757548348772712,0.714658772247949,0.5322297384530783,0.3260863315552441,0.5789384867124457,1.1496388223720962,1.0534463466668556,0.8609017857096761,0.6965759377476174,0.8498961406491163,1.286212901930173,0.9092569933082956,1.24828633345798,0.6633966451704694,0.5549039208056761,0.8719417861407304,0.9572724445779163,1.12347883738927,0.5478890667617873,0.30410055668721067,0.6582265385515144,0.9587386736077301,0.6905270001080749,0.36077643788968219,0.32790117883454997,0.2575438926268822,0.054257256902170359,0.010037907887914684,0.1543341023047747,0.3596340296247091,0.7035091717870444,0.5042063243227885,0.30208467013838738,0.29032160365144496,0.43269081265857337,0.5825999511870386,0.36879289060396205,0.3726066673758457,0.2683329879090867,0.16117004626006393,0.4339040753839972,0.4205077089031019,0.3840987579957327,0.13580807500970458,-0.012484263335975235,-0.010578323184762283,0.258508640830756,0.2073025633679738,-0.1576614992491195,-0.15877036267106935,0.2859281205666697,0.01159044487737524,0.23126655092456423,-0.17103992623897644,-0.19629493917966935,-0.22213474477329119,-0.09443958980591508,-0.2670011094004886,-0.09034613783111281,-0.3061544317901709,-0.16636631168745545,-0.1994813774466535,-0.06732638968910061,-0.06686382990213033,-0.08007145054002324,-0.08421937212544588,0.20176351210030539,0.06466207703329013,0.2304257273752435,-0.1116880399164377,-0.02515430884842644,0.14603815869077042,0.14114021335357253,-0.0844239119847931,-0.04474842696907925,0.35227290328033686,0.39470271519127017,-0.15651723097222504,0.19917751573677659,-0.1719919894430927,0.19479428304371419,0.19479261906093699,-0.7469913028745715,-0.42416972392618448,-0.06007919204600116,-0.069276925479008,-0.5870346237381187,-0.9102148459011821,-0.42827147382637917,-0.053980497879268677,-0.10086059525698305,-0.23267788471654303,-0.3371149208395413,0.2112859401363711,0.08522104641939152,0.19127767570597077,0.19536833172378888,0.04018159398289043,0.11410138685393052,0.19076027232032009,0.1950942791156812,-0.45699306439166167,-0.4976525886668625,-0.034658887293848177,-0.2613143805321313,-0.12446254862936918,-1.1855962578947595,-1.8356249291516965,-1.1061322033034138,-0.5369900534104779,-0.49157213028946208,-1.6966965232082705,-2.8130456217126049,-1.8350145036104025,-0.9936026598746109,-0.3869922511110635,-0.7347693820453942,-1.3228939644305129,-0.7929380554637477,-0.48949582308117658,-0.05890960712107729,-0.2089358480921464,-0.37188150873578659,0.06055375913563375,-0.02474420910603429,0.08717598938324219,-0.2973007785375755,0.939097451919079,-0.48203307324026359,0.6482196200602334,0.7144889483161941,0.1414346177819043,0.28438510204279746,-0.344077224768348,0.5267787938205261,0.6234857578710549,-0.1735144501446325,0.325721089588326,-0.5329573466483267,-0.22047784231796389,0.2724249701918966,-0.5213550103344431,0.42445964030673996,0.06342996337577328,0.17782326536599905,0.3235418674188088,0.40835038201925136,0.5255669295205866,0.0759218045149456,0.22832289731083547,0.25057781808984239,-0.29517436127512539,0.4148238813975735,-0.7217055575727376,0.07968905787545736,-0.012644379289861145,0.008996523922638257,0.06969080344125411,-0.44541810686401225,-0.03818225354886235,0.06045428990490009,-0.37616895407807046,0.02193849557160018,-0.8297493620083147,-0.6120108241166558,-0.6079244230267766,-0.8363733449002029,0.06083534805459682,-0.4250615603740831,-0.1799596612352808,0.08494845270726399,-0.09408739333690425,-0.004815534067180753,-0.6493381977904016,-0.2810426541375532,-0.3925341133898801,0.10056969335232621,-0.09925094700722223,-0.5632059014094777,0.05036358187349905,-0.10430357136733404,-0.1535605188507927,-0.13454682681788053,-0.4731267050989869,-0.2058365651707995,0.14764768424209918,-0.3660533592260978,-0.04064647478765688,-0.7224169862919753,-0.48356354961440109,-0.043818195643747597,-0.9183598262580036,-0.5128735769032244,-0.5943513867736056,-0.27416816591569967,-0.20201872072326514,0.059375761079177049,-0.22046334546281208,-0.5955062022996378,-0.13400452236090058,-0.18934636845373649,0.18756499268048947,0.10691087082737398,-0.10351844718719912,-0.24561284830267508,-0.16005195864670333,0.07222500325924754,-0.0947294273053398,-0.33759514760617156,-0.06550730390370348,0.07068937038822802,0.22860932540618526,-0.30335900254819767,-0.35010690310383998,0.18973193498677647,0.29589177104704059,0.20578095756794163,0.022866824139901426,0.3646897662879155,0.5000660293951292,0.20409784102738535,-0.08599396396174462,0.12595193741149336,0.17124114644246903,0.06485779144850555,-0.18253670169640505,-0.07837483724060318,0.1253811381357147,-0.2444313781757568,-0.4872666036161492,-0.16074920628474843,0.13364379805140653,-0.4092468312614995,-0.5756290445436241,-0.3484884001461116,0.30380151418117348,0.32061910054855416,-0.3296178903692066,-0.22556478791666016,0.31733598810362759,0.5511274188507973,0.0926321365580026,0.07968364597796134,0.47187743309789578,0.5096285704120337,0.26351727959309076,-0.13547355231213766,0.10538466249163071,0.12495287533299196,-0.04841807998869744,-0.10608158139313498,-0.09780049239670484,-0.06260374124139412,-0.15909679991996349,-0.3032416803803795,-0.03477497664527413,0.2675181159827812,-0.2593005848834535,-0.2909827890080146,0.06867231365642714,0.6669548429478567,0.471598014947484,-0.06249801027073454,0.11532508572129849,0.8599701245430291,0.7557049098614485,0.058041810609551349,0.23666145557826144,0.5497677895791255,0.8927788963279475,0.4263125742323033,-0.3733553344267063,0.14523767038022379,0.14081426959103172,-0.23118608511485537,-0.2005194856043853,-0.30379962672342217,0.035841626567466849,-0.4559494152682532,-0.13138442761902317,0.5250041615413928,-0.01252551508198299,0.2132723242606879,-1.1157672116292817,0.10716330570367054,0.8498610958396237,-0.20810111651358374,-0.0860174869950494,-1.069201185886252,-0.08246332496418218,1.2974393781268765,-0.16095381759058217,-0.12470469466881831,-0.9002553993931872,0.10824965715052101,0.7644213273722907,0.06413111175692851,-0.11086507291943619,-0.4458527427580441,0.22038806807974208,0.2970164779197972,0.08669503453475466,-0.007028548219442965,-0.463511856295767,0.2864175864482826,0.42316183507899687,-0.21706306629868198,-0.14410001537762619,-0.9770015269885596,0.14966673746119725,0.7476916211735871,0.014251429244625493,-0.2931766860208467,-0.8463744273937405,0.17973862064858066,0.926729913992512,-0.06022731471488552,-0.23397334816261249,-0.8659717734340929,0.31851619650894216,0.5443943842832457,-0.07993343221527799,-0.11671852102586063,-0.5758227298079264,0.2997433995431059,0.21041511209091003,0.011480009418863595,-0.03878175907563154,-0.29487636316498797,0.21972234106855885,0.3569783473554309,-0.11219844083945123,0.09515162794466627,-0.9151965600161618,0.3963755280632873,0.6878816583784271,-0.018622062657944487,-0.11695145715447224,-1.1217348432486035,0.6367421546924221,1.202270026627041,-0.026892398181821397,-0.29454339216022659,-0.996345118253031,0.7578347189116651,0.7536611509718442,-0.054245328572243577,-0.341530416499517,-0.24741047023307184,0.3435003278007771,0.04885015287284307,0.05509230225142906,-0.07755085263257647,0.0030673470229303945,-0.355372640838583,-0.0841113750163946,0.16260604604875354,0.3794718097083746,0.048023021973607849,-0.6302013901306655,-0.8344562332775842,-0.919564444653135,-0.7314429651317862,-0.13854663429597853,-0.6856587740080138,-0.9771143342198827,-1.1904933868787127,-1.1418581990671859,-0.6316796604149088,-0.5147680345240642,-0.6134295112384541,-0.7480763332083184,-0.6958254271334711,-0.5039691401106625,-0.14151385591035094,-0.15691912361178524,-0.11220429095739085,-0.06497967627521759,-0.06946212906827737,-0.5932572919276071,-0.47330926235802525,0.25167322587544707,-0.143615356053434,-0.2116568850645437,-0.3940218307306286,-0.41273671901656619,-0.8554131080915154,-0.6041084468469669,0.1960984282255854,0.04088184888298266,-0.6617261818909437,-1.0364396309613533,-0.25068451939648248,0.11237184966955108,-0.00231741208309202,-0.03828466373232668,-0.14969068054877866,-0.5300028279083131,-0.0392652762463417,0.09454152545348862,-0.12017446208268516,-0.0801973062050819,-0.10326424636692847,0.23190613892614465,-0.037993922260536047,-0.12791449981459625,0.33760991504305479,0.3628598471989035,0.01892694159358239,0.18895924123407507,0.049166165336563167,0.05655938723102097,0.31041072293400948,0.06827613485267474,0.5115937161536022,0.3134150134418205,0.07194819946387093,0.21826647889610044,0.27417827907625388,0.5040904441403662,0.38345309460418827,0.2502939747972751,0.2541646237810082,0.27212624655036396,0.29910527124296418,0.3327367496870421,0.10359082897550522,0.23558352894151805,0.1479312350750575,0.015601169165365867,0.026358875750933518,0.12391039843431531,0.15231793639449996,0.15033105024207439,0.2437335797131056,0.20973742858629608,0.17468766786117377,0.3057239796299157,0.3390683565742795,0.12311256410112621,-0.05454033019400736,-0.06945372972839968,-0.211943403225801,0.01427672669402229,0.10255020098740764,0.17780681388413026,0.16154139758434775,0.2160405708346688,0.14261286457534276,-0.11331669962864863,0.1293383625295465,-0.08768173068026103,0.23641461631975772,-0.21833735786491977,0.12563205010921622,0.06763612274808405,0.3375331529404215,0.5109894385544117,0.23384353034187356,0.020245665037879624,0.19278406199571394,0.5257963635997055,0.3565600933980878,0.4230502131808331,0.03418334697508367,0.2263788997801143,0.28249731240158346,0.06988460785772702,0.1727946644379105,-0.08833706546116069,0.30913381940935066,0.34715274730234549,0.8083180735757999,0.5333249936127021,0.3225885607346161,-0.08109814367930145,0.24734726539999664,0.2756050220393592,0.2596261446540132,0.005517701604660925,-0.023016282307410736,0.28151257251549219,0.4672036789864669,0.3971730870420182,0.0024292089223928307,0.5249070200231346,1.1256196694449528,1.0944257870237347,1.0926524163615826,0.28827993957607997,0.8524823827520914,0.7748680139809326,1.2860906305505058,1.1091026297741216,0.6695161733557128,0.6643383664711109,1.1043714939188126,1.249344019968936,1.1677718698006646,0.5727482086268124,0.2915871200728189,0.5728491199714683,0.49689505135993985,0.3774828777464295,-0.02687266227163604,0.0035297970066231786,0.003628710257155026,0.0280105503602192,-0.001644137128857983,-0.015799979539300764,-0.02344314287632583,0.006772738832215952,0.025712819733258064,0.018552999443249168,-0.01102944143184138,0.02012129454050204,0.031858405409398497,-0.010280871279399485,0.018272403076951796,0.0015065588120023477,0.022451771682715863,0.02316168849544231,-0.04909816466917159,0.009265109465177314,0.02438144726394991,-0.0076503404312267,-0.015213204183909696,0.018428933838860179,0.0031379472837025498,0.025502539400946244,0.020701889064935278,0.00628786779354788,0.0045425009077863219,0.013294792487340085,0.0004895452010121814,0.028459059735432919,0.012198579027035346,-0.011711879674067283,0.01075705834558825,-0.026088831898342634,0.005162022906810133,0.0046924613990321178,-0.0019052426523449623,0.009701716199248404,0.005565083423379253,-0.04310930710802386,0.0015374869572071038,0.006520738335325646,0.017375671177105913,0.017125047148143083,-0.007548605995816767,0.01721488318511534,0.010284943943682085,0.007735737310389352,0.009681811243232794,-0.03638968380812338,0.026636221225706279,-0.006963639591428507,-0.0180739507852364,0.014989609659810749,-0.0017902137268065513,0.005148994041848314,0.034503899725333578,-0.02011548708623924,-0.01239776401367596,-0.027737859750580086,-0.023003747618964716,-0.06027943285759665,-0.02213993841291042,-0.04704806918123815,0.000234259737338467,-0.005560423129367133,0.020756675758724375,-0.013163769020533432,0.04352343272002019,0.019098582195952907,-0.0075779883405787278,0.002319100553174999,0.042484939307909978,0.009631161630094953,0.022123107385494987,-0.18340613561264686,0.010614574178408035,-0.008530060533708502,-0.009685595491335493,0.0070096473763995108,-0.027857986865291369,-0.010140637640144144,0.004467455278296748,-0.034909417531605178,0.030479305003160988,-0.00015018602426830683,-0.004801402700423698,-0.04145491736422198,0.006735505363679045,0.02791801852825076,0.0017190653265629782,-0.044942363787614649,0.022578461854380759,-0.011772996062023655,0.011324599432379255,-0.0036223000561900755,0.008468480952929814,0.02360696976755871,0.015179155843278255,-0.01924569424699435,0.01082862888587779,-0.010611563774217162,0.03443086472460799,-0.02058308525866282,0.0021053814361999417,0.022334162748878888,0.010393286931497367,0.02351430729159336,-0.036279545643229337,0.020982387983102266,-0.01782779613636341,0.009266237130091879,0.016888344512874636,-0.0008718768072193952,-0.007226204017461696,-0.03241582601762285,0.0029015279886087216,0.004506081818079445,0.006756561884877938,0.018286273821154176,-0.005471082424366389,0.011860364697025875,-0.02134398721548999,-0.009850096685703297,0.0068987643420570609,-0.002962494290739971,-0.0247608151614478,-0.014948839348852439,-0.007288446356452527,0.00012240692753661333,-0.015781658093491518,-0.014315681989558743,0.013001316275559909,-0.026596567825811127,-0.006535158920419338,0.04920008842628139,-0.010102480955689057,-0.010993728835296733,-0.017449189447470389,0.008133049252243776,0.0051419932856530468,-0.014932597057047966,0.02280795723472885,-0.01834837963968085,0.02176074002463536,0.006203406003536046,-0.015934961660462458,0.013232973303942415,-0.029746576746280709,0.005792221413189783,0.0007467254792196137,-0.20383246396910369,-0.16405517008257135,0.050177359130549849,0.14595152083311728,-0.21238976474965638,-0.18884399502418029,-0.12360799195435157,0.3050911431196321,0.44038579549484838,-0.9138633793746709,0.018582274470799254,-0.2548235755070522,0.8127097360976335,-0.10490976312988153,-1.0887839550227026,0.35228644014361418,-0.3753805634425117,0.3508769937552955,-0.33624306212727075,-0.9603748893599411,0.5407409257704224,0.047712249683625817,0.09544559596975722,-0.32674084157654767,-0.18623853959675133,0.4107454285184952,-0.1346560982185764,0.19164147892984677,0.3602861180507809,-0.03496977029222624,0.029022201506280766,-0.21369500385993518,0.43005419329316926,0.9093838235547882,-0.5647307184471111,0.017175383589920148,-0.42228488888280588,0.6279322062030427,0.8504092896649641,-1.3628873839198575,0.3111819545015012,-0.25084776488181989,0.9665523451256984,0.04769007564888005,-1.210805111136348,0.45497702669768066,0.04590835126574769,0.3738726771269796,-0.2829502257259627,-0.5115734689304393,0.0031549972751412299,0.0007827015970380099,-0.02393266675785592,0.08606090010336709,0.07474051699102823,0.03897091542343505,-0.3698049262007683,0.10625948422536423,0.5361856353076222,-0.262244624491391,0.18123467137562997,-0.4877209218447829,0.3766912626293154,0.9994944195238504,-1.243720971738062,0.23875047670447453,-0.20326175554186147,1.0429039770507105,0.9573827687399688,-0.9575409547402776,0.351066600172366,-0.04781600458944085,0.5097930249000683,0.19588614564973218,-0.7087579168422461,0.14679299452957723,0.02232387431553897,-0.21186866545556863,0.1296165807732481,0.7159614361747352,0.3900434472400454,-0.31974422460609816,0.05175361656965373,0.8737778282040879,0.9070437013648445,0.8018644722189902,-0.03550025351335785,0.17173656999833362,1.4520912250064784,1.8361496749147242,1.1285025232018678,0.11172468232698785,0.1955060218690231,1.3030198264453932,1.6898764947892553,1.2133679403681815,0.2665567939310476,0.2485757082552616,0.7551609737432664,1.2390851024220613,0.7720465681289749,0.552145496605295,0.16938374284334149,-0.024301292629504615,-0.037171695916878248,0.18302245821254763,0.24901520039469444,0.13102680883210064,0.37858077847370966,0.16070704601436643,0.37200999741302817,0.5402602973818493,0.40631105181880469,0.35796629128871307,0.4663562601006269,0.12948844950398834,0.16142401466370308,0.2472132438774825,0.13363232699657186,0.3732583867785371,0.6208247780166022,0.5707929144227482,0.48605614762776286,0.43376664739014567,0.1813136363529833,0.3343785110354961,0.11648511754579977,0.1105459225068897,0.09567764233901294,-0.002904311465368116,-0.025275207708409954,-0.36135733846271697,-0.00425999325248207,-0.34249264949838689,-0.0520601392267215,-0.0869456509518726,-0.07547172258261516,0.1098823199193942,-0.3229023940142239,0.008626625516323939,-0.16394442046288208,-0.20900256816220673,-0.22491537164823886,-0.22625416769528715,-0.49249221166016396,-0.11170158108313883,-0.0009005733574260666,-0.28462443731025208,-0.09070524948725833,-0.2948523435308168,-0.0803322164794773,-0.04737391685836238,0.1028623896129958,-0.11286032877269223,0.07155565927034757,-0.061533997462925937,0.16303554066146853,0.19160063147378776,-0.009769820916402005,0.07043422613616356,0.16733639580653485,-0.0011809065811412348,-0.2141733090736331,0.3065123433789314,0.616350973748366,0.576543955194489,-0.08824565232789269,-0.23833727425704619,-0.3614537709439235,-0.4758194524275364,-0.5705563180789668,-0.3973310929810635,-0.26691555555409365,-0.29303609507826886,-0.47119512652796349,-0.4423804570725659,-0.06569661345255538,0.11294690727384192,-0.32843117903753846,-0.14807841820134055,-0.0883507200433927,0.3028695442777318,0.09608057604146812,0.14525823540207179,0.18387822989665568,0.3574186822207454,0.4278224429283425,0.0990604211147885,0.49423458771423736,1.1446433630211479,0.8792300585142511,0.06941345306445271,-0.398559780087559,-0.3092532585528976,-0.46598072706646379,-0.6138000864868219,-0.5640961532896361,-0.2727789183925042,-0.4270444830219905,-0.6611056398203561,-0.6637744580909225,-0.3422782976133777,0.3168921335211554,0.06200864253761269,-0.14751732478613514,-0.3234199951176832,-0.07023095550592099,0.04624408615858571,0.12476772970727554,0.16985802493854,0.34509869570853049,0.41900559555316838,0.1488730985360634,0.48125455195001218,1.0629740496165233,0.8981424983841769,0.3293722953425153,0.27747010531767937,-0.09034180854184733,-0.050062282569863007,-0.13520462194519804,-0.27942497505967259,-0.08372205532016824,-0.24266778397675413,-0.3991775551712715,-0.36858951000106679,-0.18998888460032377,-0.02996273167827462,0.01009155981220213]},{"name":"activation_layer_2","index":2,"weights":[]},{"name":"max_pool_layer_3","index":3,"weights":[]},{"name":"convolution_layer_4","index":4,"weights":[0.23032574625216555,0.280535022099573,-0.28685979822455368,0.013023089564919526,0.049832590734368607,0.18297666103499603,-0.06436801494382935,-0.18900357352018755,-0.04784198051672516,-0.015051980852574806,0.041089908048184058,-0.16935403487875343,-0.27319512796757397,-0.197808559253543,0.024500524570211538,0.03640967909221354,0.01056552443797137,-0.19230976695553943,-0.2506739255424489,0.11448507854987067,-0.13344450235312056,-0.18405353409176379,-0.3105419067757348,-0.06569176973496412,-0.06523885150334638,-0.0191172376428471,0.010658395911196788,0.20762327426348796,-0.1942404310505993,0.1723531952705948,0.052008120987464007,-0.11436756417825966,0.2573422079357912,0.21124179467009386,0.39153469702174,-0.3684802628757651,-0.0879910908561088,0.15914635818994445,-0.11662733157214239,0.14551241280237293,-0.19690947011796854,0.027694849916637913,-0.06406762959322404,-0.19157588249651656,-0.26219743387165969,0.058822274455386017,0.4070639424277273,0.025498326277161304,-0.36863599361515228,-0.16136193456357895,-0.12801714225815279,0.14900461433504667,-0.11035202385157965,0.02017168510878847,-0.2585090793999774,-0.10389776490574779,0.020896830251392954,-0.04019867738335751,-0.680897291046774,-0.36039354916682606,-0.048944232764339307,-0.0880261117423566,0.014171097192687709,-0.5435892481928887,-0.3605692178182299,0.1960492608332508,0.13067130948765225,0.20348253531251166,-0.18825439061677955,-0.17598615985760214,0.040210381843915458,0.24771541991375829,0.07164735941879876,-0.06906081996406877,0.19090183634714,0.0070765843816695569,-0.002405499034634277,-0.00733146702002304,-0.009199552366205788,-0.014447079381038423,0.011500110766731785,-0.019164644419090054,0.012986550937838002,-0.02752024972806109,0.005062302379822114,0.007966150390946217,-0.01885231838638018,-0.004517562101779281,0.02327442519525271,0.005240509122007188,-0.0033209480603072704,0.0148367398726565,0.007156312464126276,-0.01067165593635399,-0.016224331099888475,0.0007826962340008656,0.005322068246356289,-0.01876686567879852,0.016780411502934857,0.02144803138882895,-0.08668244552199941,-0.24755812873955125,-0.08436303909701949,0.182028981502802,-0.07486508195888425,-0.27943018968794405,0.1697845579157198,0.060884581771794909,-0.24074748603881467,-0.2548142828596191,-0.2713186762611544,-0.09302441379288014,-0.166933861069121,-0.3323562086974354,-0.30417431783377488,0.01883829348242719,0.08281405043563872,0.018560516746225207,-0.06555387036996419,-0.1317089587329868,0.11037651505533597,0.2200093344799014,0.018218617725145857,0.1778416934849204,-0.16848261057321776,-0.10257582526046225,0.043851339687757149,0.10233631772483902,-0.07363790195433724,-0.23427812682223687,0.029640683082362026,0.1721259605269491,0.0686253828013154,-0.16731780845291045,-0.14934900154115048,0.29497315617948707,-0.05215489349389049,-0.5500201058503551,-0.29301274007289199,-0.1626881812720025,0.12712912912855843,0.10871631081255856,-0.33962074999132926,-0.3037998490771359,-0.030985952664861047,0.12934245279555232,0.1741319368538551,0.0772370681098867,-0.2401776573380095,-0.07471994122472248,-0.011670293180106267,-0.026031238265100354,-0.05372763350426818,-0.1621637400332538,-0.2635338336607366,-0.2280814292594636,0.16723154811382719,-0.1324892183751169,-0.06888472517710645,0.2474251523298946,-0.24225721154166866,-0.02289021582054338,0.13287247100813985,0.08133244771203922,-0.074965845675352,0.004961868158987917,-0.053131808557425979,0.06648933713168297,0.09446573522820837,0.2591176768570637,-0.43673385018868207,-0.225184075807402,0.015779448398081324,0.0385544188992987,0.13171260847834494,0.10441924743090299,0.01436222165455774,-0.09075231490910062,0.057906050537409849,-0.13567487706312954,-0.009070454883150474,0.11814249769984933,0.05899895434615631,-0.023417482733045365,-0.003577419473013181,0.1360135241653717,0.20407403510196299,0.17163529158644853,0.027233191117493808,-0.0228358971889142,0.18145474517435263,0.14367907842309714,0.0073715373379658779,-0.15218962622538249,-0.0342520173420223,-0.02938742292905885,-0.03827221953624892,-0.10803613240273306,-0.039642145228140208,0.11217328648015614,-0.19566138092756947,-0.12413808612929528,-0.1677292282143729,0.08276800688616985,-0.15295087299097202,0.038243454304985689,-0.013374986004833861,-0.08979583033447508,-0.17514362317013155,-0.03913218678974769,0.030408784221057605,0.23985855092088485,0.17738048857548789,0.23552672721471883,0.16468927923375438,0.0870500741280887,0.11006076916821861,-0.0263479782282094,0.11304896199664946,0.06844413689290796,0.07704370696087397,0.0601547074948658,0.11919657419479438,0.3290964632159333,0.27109211847958067,0.07523112525222421,-0.07240626864097881,-0.07718576276803857,0.1470079908727642,0.04189180586908074,-0.2864640987936756,-0.36078373822983819,-0.06409125509280682,-0.0773109765604445,0.18990433923741735,0.21374233219468309,-0.11723727398444534,-0.0003847313566272063,-0.14129503767192334,0.009875330302489901,-0.07596764319670932,-0.12602929256292606,-0.0972911195520208,-0.24898082933181338,-0.25090251611884076,-0.14064275741950295,-0.15051247086352954,-0.05188979139113893,-0.13821323346581328,0.020777584148510936,0.04337711508571418,-0.04521717084777059,0.06715147453171636,0.22656858617849907,0.1474796592968841,-0.18394792736679795,0.18160220823111437,-0.008629318189646796,0.032146025477648488,-0.06621462562310014,-0.4388780002151422,0.10702088603735624,-0.08055331928458813,0.07447874163333186,-0.046548636246216187,-0.020467870430036489,-0.043092871253878218,0.023896178295136445,-0.2773645054348026,-0.47885866143765157,-0.12344897557681967,0.19525033029863188,-0.2630054801774403,-0.031019073254857127,0.0075869390429558259,0.012206318689926374,-0.027270182750778087,-0.028006367256811858,-0.010863629249952359,0.01612199892979901,-0.023040522771865816,-0.025160090511225479,-0.007202420896474212,-0.02495454679038045,-0.01798125700619678,0.01212289167903457,-0.03610120526785052,-0.018826480957333297,0.01386409099755719,-0.02351908115355891,-0.015104509844035089,0.0031937709676619055,0.006713573497315487,-0.016638811757811193,0.03706216860487087,0.019329623593842075,-0.02817109695331233,-0.019002017422917497,0.005272024577982136,0.03874564208914023,0.027813187303292566,-0.04942929715138343,0.010690093050574888,-0.03319476121753675,0.014302413553401077,0.03616242570668818,0.0012367182979907926,0.02002759758828463,-0.01576078215080152,-0.02522824037716672,-0.005347901878547398,0.001350391625331858,0.006668879104375985,-0.0033219156200538699,-0.02619211665697313,-0.01565353372345414,-0.017368028393780947,0.01687070443741112,-0.003436767015970465,0.0041781207439077479,0.022948187093864929,-0.005696054070048991,0.005170821802418604,-0.003855746325412882,0.00604305142179933,-0.240780874337018,-0.2979485042950575,-0.09236096429977064,-0.19973200993768318,0.017808028006602557,0.06101214166594946,-0.0426829346822633,0.09277185518808229,0.00612519920555179,-0.20111883886563146,-0.0008275550799776847,-0.17294857758449173,0.0014770054584446965,0.03220691554277947,-0.05513139383237419,0.16615451260851309,-0.0032423415861086359,0.17571995985161996,0.27207111461427938,-0.36110116473645079,0.06358424172453879,0.08002053013588673,0.16738017200613593,-0.0001885818673480003,-0.15364388149778433,-0.11392312882584893,0.20821098251434293,-0.31894370069734798,0.08227283440264732,0.308480483143993,-0.43439955369481478,-0.32666380641120537,-0.22048414361204275,-0.052524534377131257,0.1865726216139742,-0.22679946009563044,-0.17935415408036813,-0.22766656351524815,0.08973168225772303,0.12945897995009085,-0.009067432754211853,-0.43687771351437656,-0.09207094848160104,-0.13014858018681406,0.12228266397279138,-0.007555857254545206,0.03162154624013604,-0.14117168007879567,-0.07972237740197964,0.30291972358246208,0.09822240642130069,0.13647137292168108,0.09510043122224619,-0.01380779742775935,-0.019135114421459478,0.09059634439219601,-0.14494752457768957,-0.12300221595887924,-0.17436570034796937,-0.27641892804195669,-0.22120554075651548,-0.2716295954435096,-0.1980663553508254,-0.11863167323098559,-0.30510344533689157,-0.11101981158030519,0.027910617905056186,-0.16319541822635023,-0.01626804607427953,-0.018609450352360003,0.1514294229762524,-0.04269283146749427,-0.041880998830264488,-0.1934390103662266,-0.11016672391513888,1.3331925123518545,-0.06999240365780962,0.08848452028783614,0.18345857335455785,0.15575386586261254,-0.10103747123989726,-0.08045678707863172,0.030135245520190387,0.06678753841065696,0.012246104644474534,-0.11970100637065144,-0.19027195572330114,0.1537400524313226,0.0399579663015552,0.002317895396436407,-0.002661208067285905,-0.1513435996743324,-0.035838337046112087,0.20361344154841846,0.16840423648314263,-0.31938779537054926,-0.13604891676561008,0.1400845653970096,0.18954321125168664,-0.03689496180148356,0.03162525555108885,0.18945863851261217,-0.26307751235360329,-0.04828433722159485,0.08483399290484213,0.1722976630488732,-0.08779089474919394,-0.22314961272209136,-0.1423043117676441,-0.0009216238292384906,-0.011971449292948317,-0.06525880265884214,-0.023781729307473095,0.24445525098763896,0.06639329367852448,-0.1173989411996405,0.018957021235363585,-0.029958487618207864,-0.17301605124367606,-0.03791323430118333,-0.2146171453724092,-0.00665791581779342,-0.21671644968960084,-0.27956362273822679,-0.2322490764142293,-0.16476256107580174,-0.01728053381080741,0.026624552462184975,0.1950635208361785,0.010056099106146259,-0.29352711522723559,0.13590975421473446,0.14059654966345865,0.01066333594604769,0.3003875730806697,0.0735999977562414,0.22345950887328892,0.17798356782963957,0.34453390008936987,0.40557021081529789,0.10990099167044128,0.08600097619342552,0.35146230027378785,0.19990930615793674,0.308958392279159,-0.1361163866830363,-0.3576992463632352,0.033009847129049928,0.055849324941362837,0.5969669175657956,-0.11211430723744248,-0.026793667696014865,-0.02150398393282621,-0.020209425069317584,-0.0008980454245526628,-0.005397102787835906,-0.013288321619661495,-0.015059041596407155,0.013216743466576078,-0.011615518482699603,-0.03744686806188785,-0.028435130453128896,0.0108310299631435,-0.012942296009939255,-0.011853104173812022,-0.026839582251256448,0.01687581383497397,-0.05263146397138199,-0.029713548661565969,-0.003210476747847026,-0.030092764950265487,-0.0010235793754322794,-0.02587925953248116,0.01521778172163413,-0.019569626475339234,0.015066180312856519,0.11070865901581649,0.018756806923247859,-0.17427958576340259,0.04025195413348638,-0.17789527629155622,-0.054237499289017939,-0.041541648023478938,-0.07354609753963849,0.014525943925610985,-0.09054669114441109,-0.0555848469779662,0.14163215192484528,0.15325748914578103,0.22489906413858325,-0.0029446407721113595,-0.162056648876648,0.2035390721513445,0.23741735019461478,0.18566602578128969,-0.05868073727840267,0.06609704770442214,0.07283789449712351,0.015307148161833632,-0.004233353503394521,0.20174832400147447,-0.14946964734221555,0.14237527932638056,0.002977427226708212,0.11580520842475049,0.2628457675506399,-0.09173254031636084,0.14962426093623938,0.042914164389923788,0.005200453347563017,0.0781418763842171,-0.6978466872003881,-0.4336407282552093,-0.43529871115272136,-0.3503071571444242,-0.013924783466156733,-0.24437218814254273,-0.3839517311700976,-0.24580349321931473,-0.22006425599053168,0.1806764694472311,0.00815367877027008,0.13407602178624254,0.06057566716742466,-0.09393966126201076,-0.3111545590523339,0.14693357944599026,0.36626476143807498,0.09992777981936106,-0.021650394898032205,0.03154963300047305,-0.0721358632201861,0.20124028496802269,0.18612007927314479,-0.019194756404691549,0.26700047060209039,-0.168459547583045,-0.03229900247222363,-0.03584796145103008,-0.36231252041262737,-0.2414209815494278,-0.010274335636022817,0.055720885807034967,-0.13145467376054938,-0.16650686895574008,-0.10517409011236537,0.11989223415347698,0.14334784621675504,0.1485910475975879,0.07945686318028812,-0.08075279194404998,0.026141672634247098,0.06273848593805195,0.15035148698933308,0.15466980831077843,0.2012820286771939,0.002119192871436427,0.00015812052887174537,-0.13961363727385429,-0.11921186244800704,0.0373714666418858,-0.029528787409343766,-0.11176860978751978,0.11815481134701775,0.10918142947719083,-0.0137392690637165,-0.04428724034709072,-0.04205474058757769,0.03558603419775293,-0.04443001930734232,-0.0007428415190085882,0.04352122326441103,0.02328770829124593,0.0522128565555969,0.1421462174318974,0.009103410124009939,0.027123291146507319,0.07388097589448593,0.1494231369662517,-0.12588578475205518,0.2324800162794098,-0.08348335612617944,-0.09380945658985318,-0.040631683336221479,-0.06595591517008949,0.1952094712479237,-0.25595656103199795,-0.32196139031488837,-0.07898314143831417,-0.22586243584801725,-0.1969668903577031,-0.0037100053576045327,-0.03530756697709493,-0.18600485965004147,-0.3443502819034311,-0.12714638765915174,0.018931476653864057,0.10544086476649158,-0.081250756328927,-0.20269015708217434,-0.12232834687049132,-0.0062277913466716509,-0.06877150225890622,0.3296281965490984,0.17942681637646577,-0.09570624959039488,0.04627220204907935,-0.21887250459707525,-0.09627322030543577,-0.07355958516694246,-0.2745457825112052,-0.2126590271222226,-0.061896664951895847,0.031584896922596968,0.013026483508921392,0.06361343909740917,0.04238735221563202,-0.10995794220109502,-0.0629672285227673,-0.0052543007236554978,0.003307914256495381,-0.0657861242890458,-0.02809871066538825,0.10130810266616565,0.3517528785371519,0.06725803517307542,0.21140799466391153,0.02680234180140715,0.16876798056904314,0.5294364758821153,0.15486154210357409,-0.019527847908313309,-0.15437481790833683,-0.07925685394469545,0.1542455997915065,-0.08630702295109158,0.038898730655903237,-0.05878966792245914,0.10945609273010317,0.39632015631627656,-0.10359118275657968,-0.2082934533688591,-0.11469547443239031,-0.18886573147770398,-0.1531752014807897,-0.1990539623159688,0.10203430265108174,0.04664187192492063,0.016701801624637356,-0.2472645153128306,-0.04652917411532749,0.0017312059150002659,0.0030196483711724859,-0.017225896479549569,-0.006938360881782822,0.00452363990178713,-0.01743459721984003,0.004837798827968595,-0.0013256246947301934,-0.0234173042215098,-0.0019505368544813298,0.0024605720886869614,-0.0017483949391164668,-0.01573312043140932,-0.012812973802781416,-0.008743799878292862,-0.021469321353281859,-0.010134820023898522,-0.05509626312670479,-0.03311756629447467,-0.015145779296279076,0.014661513834972917,-0.02877870320021585,-0.017975960001283359,0.0008194652376270089,-0.009896805531324974,-0.018748758028968868,-0.016884650260526648,0.0261131939355986,0.018299372473818477,0.00298033275276052,-0.01660114192247415,-0.011912166100006299,0.03539992355816867,0.020038423002916109,-0.037568366186923097,-0.004129702019256717,0.0034975672308828456,-0.01676959858602813,0.033141970840736157,-0.016064082682841799,-0.014298655401867184,-0.03625644894559375,-0.003723331673036881,0.018679429659331349,-0.016092925628099117,0.004614256576066664,-0.015362040409377567,-0.00002174757955062255,-0.011337960575583128,0.018767966212133264,0.009986552421994248,-0.008199839003308136,-0.06836097858610813,-0.11643260795298406,0.010507693755560925,-0.1688291644233835,-0.18044533921262566,-0.20285936648499473,-0.3170547894527993,0.042207918470986958,-0.22893285430864769,-0.31930362591091868,-0.18008039933550219,-0.16121797468085259,-0.237920837546037,-0.09838786363931075,-0.20404447597179818,0.034314978307063957,-0.08164698699215807,0.03952953187490386,0.32006326804419069,-0.17059506559219848,-0.11859400349106772,-0.20413240856925059,-0.0025881278694882138,0.1859352250669946,-0.10709951707972111,0.027679517074963964,0.14445797515392298,0.14741178285725588,0.09619442686192378,-0.1434931412711234,0.016690093051781656,0.22834332577044387,-0.07424531513280496,0.09465409448791827,-0.3344857985309513,-0.3157650594326893,-0.12072051918490798,-0.4136289403050622,0.28617413429818069,-0.2206681509929091,-0.23268452103707927,-0.4563496437446736,-0.6335030673919273,0.09163876257684668,0.23198574485498339,0.173123821550402,0.15651350939258319,-0.03594337132402488,-0.12093657685556338,-0.0034707113478976414,-0.1454056054517659,-0.10217491282776094,0.0350826767642316,-0.10192598065568869,0.053403610716883067,0.07985718715358475,0.16370866416512429,-0.017905857091766069,-0.07722524826506389,0.1089193985874265,0.22672846156877514,0.22767058633386956,0.0868778398264613,-0.1711133795352701,-0.09534813020677592,0.18372979392981846,0.22656185134513635,-0.10679914464149512,-0.05262215450829227,0.0451890474983824,0.17813708581145078,0.14478365214144818,-0.057750220574195,0.19664989533594885,0.008194798701365606,0.2519047030719019,0.01678465519568553,-0.16812084761138022,-0.07968867386529363,-0.12556386532416539,-0.18181860611328386,-0.36583823118764616,-0.0853875522138056,0.1469660783694314,-0.20126702634640199,-0.16612749730569835,-0.2039766061637174,-0.0994732778677767,0.019731346744948257,-0.018298292506214086,-0.016371768370898756,-0.12784039417483504,-0.2959670970991023,-0.06704086318717571,-0.037884790792902748,-0.21560327102540847,0.13809722020476776,-0.08144652654171965,-0.11847877521377713,0.03916648611251921,-0.04384703846116104,-0.5048974388629672,-0.12318891213279028,0.24289256569454488,0.13011552359254323,-0.008993927906293258,-0.25659954639013879,-0.22297992094736272,0.14529411091673964,-0.42411915974567507,-0.5040816658666864,-0.6792459876802408,-0.5327497140475259,-0.28315694595364879,-0.16797078109701503,-0.5803937153686329,-0.5267362521313492,-0.30522928716938399,-0.12666075221956295,0.41123335394604895,-0.2438408430654154,-0.3957955929450384,-0.24680641231804419,0.2061502633691251,0.006279014566158443,0.03194330150875889,-0.12554885977195216,-0.4160914676666815,-0.20039272333401579,-0.20067359508856429,-0.030155161896959695,-0.08508138115740656,-0.2516871188455519,0.2138231298055233,0.28885963909043879,0.05102539543924751,-0.08311706989392737,-0.4026095748353023,-0.014662484490395095,0.30507488801448809,0.18763756507342173,-0.09833122421731107,-0.1586299358557724,0.06874220221311356,0.03790954184704653,-0.06691686483328992,0.12815994638440857,-0.08543023316549786,0.03296770960075511,-0.0477655125559748,-0.030691978274280587,-0.04715747295690091,-0.04714420465913046,-0.04513982247892591,-0.01643726310270949,0.0024862369046366,-0.02178396610711691,-0.04316088234644941,-0.0261778371085297,-0.007113371529534337,-0.013404308125873673,-0.023838079168884687,0.008852962912486907,-0.008659253270726619,-0.002390082574805229,0.012352177482631354,-0.03302393611142819,0.0035426181904896377,-0.009336322303806624,0.010175515536486156,-0.004159485852630312,-0.02290135073072108,-0.027429979714698444,-0.008464969412261046,0.16611863562300173,0.02269826246612625,0.0405196997205587,-0.01789721017601082,-0.17891672240960158,0.2120552020373678,0.1450868702466081,0.17272366304217599,-0.011148492970171837,-0.10861104891227007,0.13288832651952485,-0.006600451648360298,0.08694727194513435,-0.023586964149743984,-0.022172659792432986,-0.11341800349684539,-0.16311389774815605,-0.13623505937498149,-0.13179954113801793,-0.03310990935681131,-0.2128876601485486,-0.12298730446082568,-0.14717346372095345,-0.0971679850290857,0.01864934130020772,0.009047290824865917,-0.006605569959361863,0.015585677187551902,0.17558762431246284,0.21644940181983947,0.043216657832844427,-0.10433246349636359,-0.015788118377512273,-0.11230974671533808,0.0013697309516390166,0.06614162560721959,-0.3190057431447044,-0.452599907074054,-0.49848005267609238,-0.09263670307237573,-0.1227645655552592,-0.10157878043502361,-0.4453365191260512,-0.4210799230266573,0.14538661645521568,0.22826192075205924,0.0841210659896387,-0.13053428157499626,0.07852472833859002,0.18869844591097063,0.08267908479557966,0.0488483024113033,0.20723812326288439,0.10560659203037558,0.2499989270753944,-0.26349225119909427,-0.13242524703124679,-0.07636455301456069,0.022281925261071174,0.18738824141261543,-0.15868877718678624,-0.24798280219710509,-0.42010750259534165,-0.24469234183380793,-0.04158854986637035,-0.0505718485587108,0.06629801132687817,0.12306477531728516,-0.004412892253731404,0.242405023164933,-0.02475271932279897,0.03158704917879171,0.1488852042563497,0.12906783755676089,0.17114539867568066,0.13163006912233383,0.014507214388893639,0.03188934024162486,0.08910374637608949,0.16053967428167627,-0.00535754496146782,0.01115492887810673,-0.02321285962622172,-0.002802081712208919,0.06152681211211848,-0.03953596580400607,0.02898612213779862,-0.12653100741955568,-0.07607814316875999,0.016387564381927318,-0.011441172054833549,-0.10618395688556905,-0.1131851221696603,-0.10102933212679546,-0.14928724527903312,0.08557461349386204,-0.11288560233420103,-0.10121165063768872,0.08279917684290046,0.17076743185116073,-0.043861310820697409,0.0023453135422066954,-0.2671804915675662,0.125448886129322,0.06871579508795975,-0.07443746434071497,-0.1159593441834948,-0.12458611278503584,0.013078544873885734,0.1844435509996815,-0.2938499742889982,-0.19028042508980273,-0.2640406644646748,-0.17922607875465627,-0.21875565867554154,-0.2043494557609774,-0.2213651716101673,-0.20270102136997074,-0.07624063592593897,-0.18083639843910596,0.09820530456956006,-0.054029894025663948,0.1597485759924704,-0.004712862521483058,0.021294530077602959,-0.14231008719430958,-0.18059137020891084,0.1929734976737357,0.052518960359899027,-0.0022027802307395736,-0.03257484367988817,-0.17383017871649229,-0.0432817373347577,-0.22129967411483657,-0.041413217962688927,-0.005475576065835254,-0.03937132003880264,0.019808336471284168,-0.09283956824443164,0.04551021339774604,-0.0825395207930288,0.0007960089083928855,-0.14224145619666629,-0.15643045035881196,-0.17362091085032042,0.015554560664847688,0.2082815603657469,0.12175876269530239,0.10711585004136067,0.13048877654493067,-0.012127690610963896,-0.1257424897280814,-0.3080643537840027,-0.1551920172203971,-0.023055427607879383,-0.052631725485312228,-0.11990042857762319,-0.2517136268796672,-0.16751734023703017,-0.07189601799655776,-0.40405000067369298,-0.35808252567571599,-0.46066273207221217,-0.3763341490914518,-0.17975516668054918,-0.41200215848559826,-0.4131365275600711,-0.31632448568601209,-0.28396901677422045,-0.16732286924105084,0.009700722228518739,-0.5194481077614728,-0.4834338390460097,-0.3334246206888432,0.0059470304885248,-0.03821883324644643,-0.014447554570638845,-0.04403067763512649,-0.01218971737940643,-0.03936471921341479,0.005045947136372951,-0.013110718572181138,-0.017901554452009875,-0.00337292925860254,-0.002294750200822247,0.010207460337248172,-0.02478253544569308,-0.052020872181811537,-0.016659533327165637,-0.017857813616577985,-0.032333183712880849,-0.0038378210495587405,-0.028148334770357044,0.015599621041572512,-0.02269887408415884,-0.010330241271769273,-0.002075623307418349,-0.01838294678810115,-0.021274939095783916,0.009243943702901187,-0.014594757652522567,-0.010453933231783622,0.00456929380888739,0.015098570552274805,-0.011866833620289274,-0.034575263545698179,-0.01625232242214841,-0.020216992981810203,-0.021900408460848589,-0.008014014771765268,-0.015438760694685758,-0.03667404760947277,-0.02002256061532768,0.014831695539058282,-0.014894796166754937,0.03263618228456489,-0.007977324516176339,-0.01149842722775093,-0.020095142066665626,-0.007254830483588191,0.01452583763882303,-0.012246192922420851,-0.015862032710135804,0.005993366657176452,0.022044907742930009,-0.17509564253743854,-0.23682685718736716,-0.02832574991227799,0.07629410138062667,0.014374852452376071,-0.2887726884445986,-0.029455344503308276,0.03977896895758194,-0.03479206205551516,0.13038645905422775,-0.21375892263692537,-0.06665648818662069,-0.19912005895445077,-0.18023199758116946,-0.037015505882130688,-0.10402586983043104,-0.10291664828558947,0.00008492789819919769,-0.1018416032931786,0.0038164975276489098,0.09882645426313075,0.07887789939797943,0.1082878548177585,-0.05702743039387685,0.2624171993966468,0.18402213535912166,0.19339460411171476,-0.3278764588418491,-0.08342639542694792,0.18023892124241992,0.02559198306006282,0.02405169590555389,-0.13043057728640587,-0.022436830250065547,0.020245568348215966,-0.05800951262351153,-0.06993544067882052,-0.284143223693588,-0.2414144101528961,-0.09858598724115582,0.18453054083512603,-0.009577602755121727,-0.10469334790696319,-0.29889414981741238,0.015350148957025106,-0.11862921017152739,-0.15532115168376993,-0.11826639647245768,-0.3138087706216893,-0.17112312531470917,-0.06612895172941269,-0.0271361173500908,-0.04945072597157569,0.13823119949223892,0.09830268627931874,-0.01853583551080371,0.004820270656560244,-0.035331362187078389,-0.052475344105198818,-0.047206916152170149,-0.11091915228174475,-0.040253634026483197,0.010410901306808397,0.04004310913320901,-0.03955161023238224,0.09375771157054748,-0.03208128689822561,-0.05597886665709314,0.04777642523194215,0.004865124028275771,0.17362509774103727,0.023463940385173848,-0.0090021820969098,-0.052030873763519117,0.1474504920521084,1.6230965757679333,-0.08802500917050399,-0.06613951537261856,-0.11671517735733148,0.021126413319465424,-0.06820203070879022,-0.020767579964859913,-0.10749016499472881,-0.3470806400479604,-0.19603884581775808,0.00255011433897691,0.13384694956534114,-0.04350389692243153,-0.3029354196029261,-0.2564541673733989,-0.3755862203115627,0.012118738105642705,-0.00991641453571617,-0.2381486729454588,-0.25972248741913075,0.10607710692964176,0.01739501347573199,-0.33591668298513635,0.0324515496521689,-0.31825140391890235,-0.28758701764006558,-0.23472323882373098,0.11677649533874983,-0.38072095740491676,0.2243021910552624,0.04063694534202188,0.2053464413905277,-0.009361992190662812,-0.2897769171996834,-0.13702760515063876,0.08789414236390894,-0.008084865846511304,-0.1526916784787641,-0.4320167439328814,-0.19827251860011609,0.2743208453959035,0.15736499694596754,0.5059955812873296,-0.2645734341961834,-0.10388786673748619,0.034833443132928989,-0.11865228017055163,0.008825862967449881,0.14090214008138716,-0.17570291767256583,-0.06533331822739343,0.38902937548508656,-0.10137970361369717,-0.217312749404198,-0.03390309920518611,0.054007003423319138,0.05333161895790682,-0.17771588879101175,-0.4137258118987447,-0.5507871927705975,0.05702349676410674,-0.025025263860705934,-0.19817488042220969,-0.698193900567393,-0.3882856539776648,0.056042429358115219,0.3489734691843665,0.38810607650645026,-0.24287974922147513,-0.129672064879604,-0.26525093171328475,0.4657959922720769,0.39445039559656677,0.16936436738072448,0.1634872027668705,-0.13466914558932839,0.05052621197325292,-0.018786895697605788,0.02380892380823693,0.010984907139366281,0.0051278264953972239,-0.01930521065636545,0.0031598091548281075,-0.021026501281395366,-0.014033412423827083,0.01805236868931777,-0.023921977905070867,-0.0030843623887969837,-0.02738370453532024,-0.03233358949935754,-0.007164495493844261,-0.02368869482095626,-0.04945228437075507,-0.017648274411123319,-0.009732040083066019,-0.01872420288755151,0.01509095088954359,-0.004765249055564675,-0.0033686836399021509,-0.0011843395807273766,-0.005031594387618496,0.09648979699694044,-0.0458470009070627,-0.11816269452034073,-0.18245657183246673,0.07702075454789247,0.04488109866580077,-0.09482149892110675,-0.4286420594903035,-0.44301249299131376,0.03310164945381671,0.02815962997588903,-0.06048880850973653,-0.6676446262023459,-0.5044537778079792,0.07549764517910222,0.2563324637120137,0.14300727462148517,-0.5194137697073251,-0.04312389822878943,0.31358702927159429,0.2019120226422944,0.34246348103208998,-0.06326368304224321,-0.06689939263763388,0.1370729165894431,-0.07558884866826835,-0.1235056639902474,-0.39947301241201035,0.1524610384766952,0.04591892863774231,0.08762455723501223,-0.19080962039579597,-0.4835689783628275,-0.022361639790554407,-0.2127972185158796,-0.05627584438107718,-0.5714954579707883,-1.0810531653885794,-0.3709392049365692,-0.141629964597865,0.23926599340369485,0.01504672852957021,-0.8031463193430588,-0.6619273691031352,-0.1500341297030276,0.396762356772937,0.5894748563386626,0.07879444298974464,-0.09922125924655723,0.28708234164137949,-0.18668738631753019,0.06258454057391522,0.0230677713365424,-0.08165545004120262,-0.02484068166244033,0.05980579572962035,0.14470057587952712,0.04977365724484955,-0.053500723597456719,-0.03395820940829325,-0.09063611172051292,-0.052945277116919927,-0.18174521549524567,0.1559719591403479,0.12001522542718704,0.08251367675375791,0.11517768107141832,-0.0226695713063657,0.33439502167829329,0.45368896135647016,-0.24237965865953263,-0.3812106240234586,-0.37210683347959408,-0.2065492415412562,-0.09996467447412333,-0.09035605004567049,0.09974963555907453,-0.07465413615361114,-0.060024526503565749,0.09830780003053102,0.10401751780042369,0.07458462556879993,-0.010121417987032184,-0.057440100829135049,0.017059790735612657,-0.023144891123969146,0.018915487884747434,-0.12449235804226497,-0.06802258872090661,-0.017352263177523417,-0.18987147860093518,-0.09924298169394527,-0.20616217547235433,-0.07071739904593903,0.08202096558923748,-0.24878041734964466,0.025940434219030099,-0.01744043052508955,0.042166709251875548,0.11501174642930695,-0.0006013765507842418,0.07914096812656174,-0.04754749833217461,0.007746939476273628,0.04644397910225226,0.011845903510670502,0.056625160208605359,-0.05198167702932292,-0.02252707783525399,-0.11021731419130418,0.05487754884008607,-0.0066359770170726539,0.24545639472328194,0.044205565616043097,0.07787240148756021,-0.038069955702946498,-0.031234428136972367,0.039655530933054707,-0.06578677831077748,0.0004800325304647407,-0.3134480999392768,-0.04357497972987809,0.08598503197898777,0.0838119362657233,-0.16311761680112059,-0.11923404800834399,-0.12737673498652719,-0.1098717549885366,0.038137389459158507,0.05668496755911275,-0.012143792068560162,-0.04316098601648172,-0.13607767428735963,-0.14621220180351758,0.15101723676947277,-0.10476518395350872,-0.21906516075049446,-0.5182470371924413,-0.22956112082958397,0.23686857972899207,0.16191005880627019,0.3992203488846319,-0.23586968158896799,-0.2167212436235286,0.004111713726247789,0.03468730367470509,0.2502268760348422,-0.042866903365079467,-0.11222529456179739,-0.07045107478972733,-0.2824147390394384,0.3330925352100432,0.19689745624691244,0.05000412797838071,-0.2598197822655263,-0.2315253489059979,0.09368631617825661,-0.13577901128665707,0.019458131363782224,0.30052113583972897,-0.06566056694193377,0.3405371578034974,-0.26681623006928698,-0.22761683294808028,-0.041310834444924709,0.20229114634972643,0.12323269587021242,-0.14377251204356238,-0.10064335950100462,0.15377227422613608,0.0744037131388594,0.2128639235391839,0.22221601684460047,0.05848544610811982,-0.06674826959985728,0.05271737214099791,-0.038628742277882339,0.014395513268224154,0.01190704966729807,-0.0004947490544911093,-0.010955923241370982,-0.01230001713445799,0.00432797672841419,-0.02091581134063865,-0.012311188724728991,-0.021741427937321205,-0.002819358988210096,0.016397854020394566,-0.024190281260244706,-0.03402672303170206,-0.00009544282961452021,-0.021689459986082555,-0.01845914825274285,-0.034864957896185797,-0.040806854572696917,0.014809385203468698,0.03166512324425919,0.018739153935608007,0.02296928309772439,0.03703407192333764,0.01391771388308437,0.0327664536945804,0.02327308846356957,0.01264612710268121,0.03238265013889468,-0.009327840415240875,0.004587852193401283,-0.003958789803012793,-0.009700133662269739,-0.015299892938460789,-0.01423311372839716,-0.014284606578459652,-0.034912009191110007,-0.026630260449560278,0.023794242331875136,-0.02536933745977299,-0.011816850108948327,-0.00039857905345955675,-0.011753534646080106,0.013923335017215709,0.0025905607628034026,0.011813027428948272,0.01055249977249738,0.029419306388689643,0.007595029649052481,-0.12035094678821797,-0.24840224116201083,-0.1747080681542374,0.20488923007574334,0.07062120373937575,0.15637063267454463,0.07882503400497686,0.04903211664368193,0.0979778349807016,0.1228992738719024,0.030704858704534694,0.03340594522822481,0.03852718895064627,-0.0073626734625656209,0.22390040381580654,-0.07665952707223445,-0.13947725461958536,-0.023791589922585088,-0.05005242503572979,0.03382926305264962,-0.0721550694029654,-0.12452946225100431,-0.15429065230565096,-0.27591289191855269,-0.01217773678543003,-0.31013861812165707,-0.02433600696993284,0.13618626059759396,0.24299800698615565,-0.4267257559614905,-0.08214737876690455,-0.1542129135785979,-0.1880041199420401,-0.2154955498689494,-0.2637398456392781,-0.13955329960510755,0.28871017934297629,-0.045161349739449827,0.13725328377544353,-0.19059893271585333,0.156781645885714,0.21496047847950656,0.1572868469169542,0.10096613370622838,0.34458111105719477,0.0666583116657185,0.14981013912264197,-0.08798524044592313,0.12393843399654005,0.10631671066599509,-0.19588055497445273,-0.23804666385579344,-0.4032324237092318,-0.20524204075904929,0.03818597605866318,0.13546630943834296,-0.05638527414796707,-0.2905773850472672,-0.02716302807867608,-0.12901574745839224,0.10784697865000197,0.015526399662229339,-0.18743847444394394,0.04619918315067161,0.06422280355479969,0.0029291285587176678,-0.22270388593777255,-0.06390961251970735,0.09280644777311602,0.10017835242580314,0.11899690706520568,0.0516339216472267,0.1230478154925987,0.24993050995422318,0.09234425151777794,0.8757860629463811,0.05517929779587663,-0.1650021618341364,-0.006464416634882156,0.010218166632767001,0.00529344734226494,-0.2634760091880183,0.06525158338175558,0.055692402618742777,-0.12192107905471299,-0.11815199464489239,-0.13540534576437295,0.02591678393522984,0.13015229102966253,0.1234429909802249,-0.10152202733890363,0.12677882028466964,0.08546500944187634,0.02423840975923282,0.1044803735272983,0.12572148111920954,0.07336844335229054,0.10800126057651106,0.3268494190971235,0.2152438176718157,-0.006706585982695273,0.16149321150047669,-0.10381318920012754,-0.06827492206565886,-0.010720858214340004,0.2004633419385305,-0.08299572213623048,-0.20570180771136188,-0.7597790929601686,-0.3598844129906177,0.169254329809264,-0.2424615174274586,-0.8645509873525705,-0.8886523534994775,-0.7555742540171683,-0.19936061693054359,0.20602599341802087,0.28593436328827767,0.009494505902361844,0.017903796583640928,0.058250918384401138,-0.02222649534211299,0.024182397637291514,0.3898591960613095,0.16850768018512678,-0.25782196531011306,0.026822120910401097,0.0845038873635853,0.1566419469490957,0.2234273070322318,-0.12769291559391336,-0.023118373333767457,0.1062088730019998,0.2547747422944187,0.3497588457780025,0.06856506376853712,0.11312498097833494,0.17949852647502569,0.05967748174523375,0.280941740554205,-0.08706877974821802,0.13840672833626795,0.29633998505051786,-0.0636176507342746,0.16313227819806376,0.4054530053610164,-0.28717488813556149,-0.3451678148606567,-0.34561535153148345,0.007969933157491146,-0.0625509069401316,-0.04080928749107922,0.005461397153535657,-0.045987978053958347,-0.006377813401739381,-0.004612833786098513,0.0025075996534357377,0.008712697524864279,-0.011128785234014312,0.002517039879676775,0.005994298942607833,0.00612416753830548,-0.008967602617092953,-0.007207817583712122,-0.012534621307863049,-0.00982085564802716,0.013976366724901437,-0.005293402234397569,0.02476263610120644,-0.0022753312372604786,-0.009396385529882678,-0.003981722907284936,-0.003954845261686088,0.021461277073198547,-0.013275780434377683,-0.03673433190518989,-0.05924026471615826,0.11311301902764295,0.029156297141350226,0.08903418599000369,0.16958207089891978,0.056553230477932699,-0.09006681615771679,-0.196501547459263,-0.31739370998897456,-0.03566575608930028,0.08300876123139124,-0.15981396768258769,-0.4250950829686977,-0.3301977379422159,0.003638413420021683,0.14647190207336933,0.1407247186793953,0.28120899013648578,0.19145026152142037,0.3834382610242508,-0.1415918844882508,-0.044901960174892858,0.026928604540814313,0.08494106331725088,-0.06446612779656487,0.100843231913875,0.1058841526862326,-0.23810051090406457,0.3372006610713958,0.0037585961998014446,0.04224055715769978,0.178869351463784,-0.3919841000165867,0.13081412581594505,-0.18208213873363444,0.06284387689978165,0.014375040313383219,-0.21318132433204338,0.06606763480477944,-0.29604822295962687,0.02127789700886275,0.5177517636188563,0.1672014601638232,0.3854112510017088,0.11342773629461238,0.01639892076661849,-0.22880429488742885,-0.2318078624768774,0.21283154322328974,-0.16308303029656566,0.14206307466583838,0.0044248664014643799,-0.09257377645421301,0.15062970806460009,-0.23712741067922797,-0.26705699209267388,-0.26780728730663497,-0.17005221538106725,0.09824569002435582,-0.19042655651726116,-0.10351417381242763,-0.18499601348556217,0.10204825888913097,0.08950767414305187,0.1375153368134985,-0.01614091817668039,0.011874986025887095,0.1209862344962173,0.2758975994299548,0.25705242999610269,0.022598023472129026,-0.18053883688369297,-0.13708812709882338,-0.1555602776711863,-0.17983171098784224,0.10988835776078243,0.06334260798174128,-0.058873817132019137,-0.06223420475145078,0.03560182827222639,0.06432671002045373,-0.14803540874830205,-0.0691225867130205,0.08167047019003211,-0.012661809480187738,-0.1677618304524209,-0.14499202519355615,-0.35241724876945587,-0.18318805372082953,0.005507077076319497,0.08242378482621664,0.053122159620257108,-0.1242617837226152,-0.066086103610868,-0.12634142464130899,-0.023342793703917208,-0.06222843830464376,0.011364922475549723,-0.1316928319965576,-0.008237380132540712,0.29696384875630368,0.014582214098834883,0.03975301170447397,-0.23521979652048134,-0.155129978510363,0.1261320721402428,-0.18096602146275229,-0.21445586424660288,-0.15661820887575915,-0.19099467050951533,-0.08085300579594794,-0.2335186816602464,-0.21064851750526898,-0.038935319952139248,-0.027154782222637624,0.13422087277214615,0.06633050140922645,0.06671150183903534,0.09045315863919243,0.05184958428005218,0.11433942849746765,-0.03877168781247233,-0.03947557095047427,0.0416239395543596,0.06457700628111522,-0.1627791579211389,-0.1747429333691395,0.11204215771930493,0.22528427885338629,-0.011729809045296545,-0.22475610601095565,-0.012197655449833794,0.24677946300809204,0.11463461117995215,0.23585663894763518,-0.13978140477924209,0.18669627018692157,0.27633842019021806,0.16236433755879096,0.0782638021938811,-0.10939815535059738,0.07454463316918939,0.19850897032256974,0.14721289873356564,0.03672221703437911,-0.21320128920458493,-0.056988529589372328,-0.05191972500550136,0.05709863303549848,-0.14091284268845284,0.1011820526756696,0.15224838899421359,0.17281518185283038,0.3448138686426788,0.1278850402581349,-0.03388381630252948,-0.315737958858072,-0.4662593507320032,-0.42013786458693666,-0.06739279773625515,0.10906704176305095,-0.5724379503762005,-0.7797329019592381,-0.9972526228486885,-0.0762310503553517,-0.01080954036456962,-0.0005971323359300558,0.03624241257907422,0.06764799888141118,0.23375189790853574,-0.06625316946232829,0.04609815855440374,-0.008400275005214833,0.20919302613941216,-0.14040807445388316,-0.005535679186660376,0.017384549423045505,0.021539114576853994,-0.011594228349409087,-0.0020388458632670497,-0.01597256414486744,-0.015545377593219797,-0.006296054608299192,-0.008297125951935429,0.010873626237241108,-0.012114867064989583,-0.03030090575447524,-0.055502901933399007,-0.02416187845030526,-0.01696358086651948,-0.015550800888989195,-0.016914542164796408,0.005037437692154156,-0.0041488394469248149,0.03232880658679479,-0.0028693535641944546,-0.024788583687665349,-0.02457886870502889,0.0075078990953063259,0.01729785375029018,-0.01938958830922581,-0.0071453650058889649,-0.0037831172024709325,-0.00012954761419088653,0.00723201643082274,-0.012732643888960121,-0.029533043959293325,-0.012134891496991303,0.0031266642171691616,0.05815468962592944,-0.00152096939194631,-0.011210481331254607,-0.0037971834574835655,-0.009067369234222627,0.03773391444243891,0.005311394117377082,0.01620131690385709,0.005705083953973662,-0.023419564640688993,-0.031556111342944729,-0.00916363112915548,-0.0002942574196126458,-0.00833723970710709,-0.012199578980294114,-0.016385179846084113,-0.29890217390651327,-0.09535553854205328,-0.23862705287745537,-0.09493279663088797,-0.29558449843855585,-0.31200959709177947,-0.14842272007175545,-0.2191350403193307,-0.09336661275165904,-0.035778695163567877,0.12907888191078699,0.13639707961155415,-0.010175535756524098,0.15489743848135946,0.10499116389654136,0.3872184714914838,0.4308525793057898,0.007408633071706237,0.19982347870248988,0.14418568159732995,0.04643126307176063,0.10754770563792282,-0.024079187724531945,0.040810574580861808,0.13693814978541958,-0.22385808888158888,-0.0797716691743167,0.1724039853429011,-0.017511137510816269,0.02060738857881122,-0.016285054667867357,0.18964491813438096,0.6779446471917208,0.35253802906375805,-0.05066115372436694,-0.29955239432063299,0.3600939087127819,0.666224376936892,0.3521206227600914,-0.06096113558097149,0.151327569728074,0.4590756975128849,0.4627312083043786,0.3351312688658789,0.2533330448702668,-0.23555583449954108,-0.23559643270533549,-0.16506534274205887,-0.2027710378557933,-0.19846780286291067,0.007609524429420047,-0.004313373244465046,-0.03408683710786396,-0.00941796612858516,0.06367942417520277,-0.05506468017331623,0.048696787189251636,0.005735615075466078,-0.034415229569098249,-0.002829060194201383,-0.029816809759785104,-0.04425928056231904,-0.10490773198064306,-0.00817373063873678,0.009828118213595853,0.05338159793792334,-0.06150356230132154,0.04631844079765131,-0.0005675098726201636,-0.03406022665991725,0.06322281301962521,-0.016495233261993568,-0.012128820711707397,-0.08314275363938853,-0.019494324504248419,-0.19933125497374774,-0.35541748639074158,-0.16401013961696535,-0.17001580654550184,-0.20958470858954707,0.1676936616132391,-0.007097109722312911,0.17735630606634918,0.2528387446732161,0.17774536602465017,-0.1320472026434828,0.1681200468161579,0.047290929996926477,0.1817765704452486,0.19390321540251835,0.34431762209899977,0.06303667168990708,0.32854249997202519,0.4759946113575613,0.4110400443069874,0.27269272593445756,0.06427686426191436,0.15545287780162027,-0.026113456007071595,0.009238665800434927,0.03383869865133721,0.13670138129802224,0.1897758495462187,0.21225895456275446,-0.05777522225845096,-0.04285006832116467,-0.057241391101284209,-0.09440454414051323,0.06463792484940592,-0.13300192222074823,-0.09691300894398768,-0.40407548549424229,-0.17290113033855104,0.03264254268019775,-0.37222745769784346,-0.12129722316964119,-0.27468402275475309,-0.061066976308663537,-0.31877752312994708,-0.06422521411772205,0.08127087239171617,-0.1516699936646475,-0.03481674145658809,-0.11910031876264843,-0.06419281562905072,-0.02988871297428945,-0.09738525912404321,-0.08505304278450385,0.05055533670922544,-0.11886564756795226,0.05014738582529689,-0.5024603567049615,-0.6670247309736744,-0.38178221705528378,-0.03720190457425952,-0.3264897076740695,-0.005776552280372411,-0.25873051835504326,-0.16997381492571055,-0.06712971902972141,-0.12729430248835195,0.13239472426971059,0.6896784942384039,0.31274094887606337,0.623009391420343,0.122089365992829,-0.21879517547070219,0.2492347381584507,-0.024088411677482829,-0.08885993218592628,-0.29339267796085868,0.04583442971167848,0.010558743095174938,0.01924856806139355,-0.005806418233687124,0.027607566879618234,0.03082699353807572,0.003377844326375108,-0.032333759202301578,-0.017528399347330263,0.013046805264439365,0.01067261347376295,-0.0007855047177434687,0.012086378252610834,0.01575922540158226,0.00752154586759847,0.03692199680413893,0.004133402877908685,-0.010830415358237963,-0.01194917234742196,0.004456703631636685,-0.011022242993072572,-0.0297507544543308,-0.050585819738796018,-0.04441810529850649,0.005934239596572423,-0.12943364633330124,0.004661563170365142,0.17792088723423356,0.06518370667346847,0.06868605660520798,-0.2974231166961117,-0.23863552970694947,-0.14105347424367044,-0.2049217579685198,-0.133561737530172,0.04261613339399951,-0.2699787396294261,0.020905095834298394,-0.048096673108648877,-0.035423442837668,0.00424455159023381,0.1037502694334961,0.13310325731423587,0.12168128033457766,0.057310723031539358,0.03443318104284593,0.16732449018806976,-0.0166554792957361,-0.14448572749753295,0.26754107362123089,0.15621110037955239,0.21211031559946426,0.29421453199650846,0.019062214864962347,0.09117409670404662,-0.13486151363257349,-0.3102752480155513,-0.34474799944849129,0.024117482529018083,0.11409119389461893,-0.10504274907264558,-0.17651322392650235,-0.40546063292552156,-0.238100852082228,-0.20072838899367854,-0.21507978631767,0.15170260838512499,-0.07572299412907793,0.028649675358923079,-0.0004955277847067349,-0.08151806921385145,0.08784498691668295,-0.043630480870650117,-0.08038388397658505,-0.030270325395480893,-0.01357674286262657,0.15070432432612383,-0.025473743830336266,-0.0233745636891299,-0.10757465696499678,0.26840508633202878,0.1275599993229114,0.07881933786505655,0.23997617800976793,0.262374644024305,0.05520799847840817,-0.0074885966767511348,-0.2963143905949662,-0.10901110729204033,-0.20610694665259339,-0.21844551174198588,0.10749332564887564,0.059351674405752338,-0.015158722121675772,-0.052935096184417908,0.10316360353402904,0.018843451051878285,0.20163588256807667,0.1644536901577102,0.24633585094519584,-0.11114498037589149,-0.07732045304269031,-0.09629953440621683,0.008429930170627926,-0.13442735467560344,-0.017835616981756898,-0.05061243262445343,0.0020905661283000507,0.015681008811201277,0.08250670659646808,0.09259043763727715,-0.11069279250283448,-0.03669884670594984,0.015521454447050304,-0.012471348286368874,-0.07128847922728965,-0.08592401770093915,-0.0931186439509433,-0.04842006752939783,-0.06411596600393403,0.2881788556965783,0.040336414973072127,0.08581822213478854,-0.07578024669944575,-0.23873699229603236,0.180143001736416,0.20523320776952259,-0.1571768405616586,0.0423015167934314,-0.07114054264994628,0.07883501189242248,0.1565000706019977,0.03809963237353041,0.05566885155319322,-0.08581512162108694,0.14004332737300344,-0.019453901191074028,-0.09514785162818265,-0.2790727029832115,-0.23325916410668894,-0.2179442895084753,-0.0162469958670763,-0.15726804087280786,-0.22042500666131718,-0.3183856708405321,0.10072893292673105,0.11721942307296769,-0.037323992803450199,-0.23910392687810204,-0.09295266222540269,0.15827375408168746,0.021950615207619436,0.07031188794788053,-0.013775767745389795,0.04528241495897905,-0.2794839394631948,-0.29365458521787016,-0.15800783445613404,-0.11402685556064991,-0.2725152335869879,0.25095221315004026,-0.2342925110342905,-0.09706666784761743,-0.08850990601162917,0.015090073707541164,0.0880764173372204,-0.028017844645274047,0.3786667980523525,0.31448689847496766,0.0416169909466791,-0.026454592339197136,0.14186678976350543,0.0313423082975286,0.11523316971406103,0.006411140987867681,0.20631645789661977,0.09962047741210915,0.25307707733694576,0.04703918762305399,0.22574714999899599,-0.07328809507265531,-0.21505268125696903,-0.21919722488321273,0.06282571492198896,-0.03351568253899546,0.0035257980759196936,-0.14543489975661948,0.06772554189217264,0.005564436645432221,0.14480616338295344,0.052056444375558699,0.09630908664453973,0.048757895847070357,0.003910858374291471,0.013301802121643152,0.29055211347882006,0.23509179792223723,0.011138646575089177,-0.23285530143329687,-0.009807574307380489,-0.011003496154160358,0.0052542255086833939,-0.019571779557991117,0.040536190797276248,0.013078056702362649,0.010786776376518355,-0.0155872176895155,0.0067610520471184389,-0.012466416604361774,0.005757881742946559,0.00659108297330963,-0.003458192766026269,-0.016158007854472264,0.027476417708196506,-0.01632511492378528,0.03714453571443455,-0.004244532977738268,-0.0202148920553233,-0.019632469837743379,-0.015452342265797578,-0.0065215824157229388,-0.005975275013235803,-0.016149813406970135,-0.028681179325362128,-0.03478009829301494,0.011273398098095432,-0.007975592186672192,-0.027134253914100138,-0.003954746711130172,-0.004854930056621358,-0.0050315764167818319,-0.000706752395188299,-0.02634154172482785,-0.010332032341467729,0.011965012704401371,0.014396528143561459,-0.012942015263160727,0.013372144314518275,-0.0053340954118806069,0.017625526189589678,0.0018905001046965185,0.005337186083063098,-0.011530848143229215,-0.005093873533207346,0.011120885099917514,-0.020212395614481704,-0.0027594767250766997,-0.03854942544979841,-0.026332993476806775,-0.0012585383701497096,0.25832281068344567,0.10083481783866595,0.05318225369141774,-0.09677884854609625,0.18479538501174648,0.02049324207280739,0.042930384216854858,0.0933360844050295,0.1134616889777246,0.13828305396865854,-0.10262248295990051,-0.21385936703309195,-0.14475227877575726,-0.028681985435513106,-0.023824096016629743,-0.22059722216368367,-0.20799456074038229,-0.25991775705542238,0.05577148802982623,0.1557218006556045,-0.09773258431659651,0.014870763731103408,0.019679065325332324,0.0073841294388066959,0.2187067804571723,0.15415021981620914,-0.013521267888467304,-0.18465058194222348,-0.215893035355897,0.03167534532018835,0.2525656557229043,0.41245140271860217,0.32663873605084178,0.12051526292447942,0.07493419331059946,0.00561365611377006,0.33796430122264828,0.26142884414710779,0.019501182847497728,0.33283686670038739,-0.8575888263748371,-0.6247180045463407,-0.7857712988150252,-0.41374732887502099,-0.3185206876687527,-0.09841081169189428,-0.0622133422119019,-0.15797158617874208,-0.22294857520457973,0.34893975513201816,-0.003371384512043961,-0.08369930176564633,0.0800114013313084,0.052514016924897276,0.015356025872845935,-0.12152754608858729,0.031270049214522029,0.029417335473373619,-0.0006130911274905365,0.12532391987342574,0.01589506577591533,0.23199922992226869,0.1843971927577147,0.34001231835928599,0.1889518563471428,0.02794023960164482,-0.014281684980868747,0.0015308158972424833,-0.10038067238721069,0.0076906632717370919,-0.012384771405436148,0.034181950408352219,0.11661728997743312,0.2016874213407,-0.03769976877275944,0.06471961712535029,-0.18950122689076244,-0.19706076292868403,0.12152277881324518,0.20672841378754806,0.07183988969164167,0.07591618273644126,0.05288880407229748,0.07514202627471432,-0.14226916814636693,-0.29119180259467489,0.007027193051746488,0.058643446229093749,0.07316230527434593,-0.10061771748744265,-0.1486093190543824,0.11456866266213395,0.29770748380064007,0.3440289118609489,0.1222560386258249,0.21776760506798127,-0.0651232832285571,0.05605560358344805,0.04238313891827124,0.053886917251219457,0.12013646306440014,-0.1693939753850739,-0.3322394622699675,-0.36919612282508637,-0.09686005563160952,0.03292364681451943,0.09776539849254772,0.0326457168645722,-0.06861407811508359,0.19212462874161885,-0.13470904208239399,0.1550365817306136,-0.10429272388852418,-0.17103651923963693,-0.15910859256642996,-0.053688652736349717,0.005588031416778613,-0.08735958094508453,-0.27108382232730157,-0.05329803581217597,0.07933436564368991,-0.15856181546094365,-0.14590804117229176,-0.08750428615845735,-0.12232564966390229,-0.03696770607557805,0.08400796569335342,0.19529183198436568,-0.047404722782537978,0.10627537268494512,-0.03553242933743154,-0.1009909236782001,-0.060958038257419969,0.03229092667952818,-0.19265508646962047,-0.3748331512330269,-0.2119344320167786,-0.1756807976034297,-0.005790797312555997,0.11522982063197179,-0.2578356478672342,-0.10010465990926544,-0.055665934363257,-0.17118951261835967,0.17118423588655139,-0.1402407626486996,0.07856268646523135,-0.10762102303012461,-0.27797304076212639,0.12397151645366982,-0.23329001845169385,-0.02045419513921799,0.010459450482156872,-0.02991477225728307,-0.00685281533541658,-0.014882128335892057,-0.032242927887087987,0.004746057017569938,0.014457119717468803,0.0012552288758461569,0.04280808369215768,0.015269321921171891,0.012381203181514847,-0.0026610142585918648,0.008062659008832952,0.023867618095981124,-0.004784285006731679,0.013285761816301263,0.008934595013810653,0.0006135505330039813,0.040106789466218008,0.0014485955751752944,0.02645761444463833,-0.0037396877667049955,0.01412219069363217,0.0048936109246313298,0.043541198406595,0.14672375704154154,0.056297725983152458,0.18130747970781226,0.38081250754535225,0.018468750513024054,0.08848242247246668,0.07855568624415924,0.20612096733241259,0.06587095987628156,0.005752931676693272,-0.010730730061600047,0.043762974846499807,-0.022114758021650979,-0.023481434480783007,0.11038657968960641,0.005671125625352632,-0.012292107992450504,-0.04596790061391384,-0.06915073812679382,0.10856978688604671,0.061704615526082137,-0.04290369450133636,-0.044325754790553128,-0.08160058126722776,-0.06348031822064399,-0.11587194580604875,0.2300714474289031,0.42169673478952066,0.06946920098292253,-0.35648589937098126,-0.22772918325473108,0.26960948808409365,0.4345567612703356,-0.014153026071402873,-0.027710490889140475,0.3968590858594259,0.3670073397298284,0.7383543801945935,0.22512615911987006,0.17911180652150383,0.4904333774637259,0.3380700736310541,0.2766773941543468,-0.05079178466448498,-0.14800466177428032,-0.17577658721185619,0.18441343275624684,-0.016450378404927917,-0.45306848000832836,0.3388470363708979,0.05264899007607964,0.042246375561644278,-0.0005952904087483308,-0.023029960868521779,0.17719382854152608,0.07679253780015291,-0.0448755181508953,-0.012780134994523364,-0.14205249804682766,0.22484724885877237,0.19424378258891288,0.1286923283764025,0.15668700672192696,0.08917586470723922,0.12090737717426546,0.1719476301796364,0.12390145610265596,0.06455794093124713,-0.09826112038313507,-0.06708676057828161,-0.14561592060475279,0.003187534885201784,-0.02040138941933863,-0.26434829145187457,-0.0062049624594301649,-0.06197293810046646,-0.11441458469274836,-0.07825503984516928,-0.07171792153218013,-0.05855604320226088,-0.06830879532489116,0.029556548648201915,-0.07367151069552744,-0.19782856544668235,0.040396645547573887,-0.030751497432295269,0.0912400084542149,-0.08618950263393334,0.0708155572372049,-0.017274231522429345,0.11570478582918824,0.02189501410154067,0.003066398743897271,0.09544220006444636,-0.005967890464209994,-0.06834633951127256,-0.22920291247128403,-0.13625676407057508,0.03623183353097814,0.14518497302255596,0.13495150674676174,0.08592628158988715,-0.018271854344375034,-0.02930244714523551,0.042004449201351597,0.22462697581862416,0.15660270916113123,0.12187225089252434,0.08581003804370963,-0.02188829816238956,0.06896733805474866,0.020416451002413753,-0.005992779940673886,0.0972272511657434,-0.10285080701277345,-0.03025503025638677,-0.07921544008635248,-0.08962486936776622,-0.011182201181560452,-0.12304586959579724,-0.1788348250710056,-0.2593581342005263,-0.2087080220313997,-0.15217927166440396,-0.06202510883758808,0.058519635756583438,-0.08854163257893588,0.008370826299458743,-0.10862568296922809,-0.20798995096307636,-0.07688630818292817,0.08465979851290354,-0.09199760944750028,-0.2509219018897577,-0.3099494607742068,-0.052034005177416787,0.05853911881312327,-0.06017193151674567,-0.2548852917647478,-0.1874212691318932,-0.041584824341099477,-0.03786658900851859,0.050843131801725647,-0.034084481565697117,-0.029975935550780223,-0.0559765550399874,0.02569733441112736,-0.015367093589091897,0.0120198390987089,-0.13298352145077459,-0.08803029641167573,-0.18835882302387578,-0.06003685319047056,-0.15817665075333763,-0.18993181128503748,0.05984772231214446,0.04238753536310447,0.20360059073982429,-0.21887795747117728,0.05922899246613712,0.038602735458520279,-0.07471844949318356,-0.09721921889553442,-0.3901468167683557,0.052912661194527737,-0.1600653390597585,-0.01666322847790246,0.07178068434546457,-0.14570646571253108,0.0449227548552,0.13495904367891368,-0.07750471234110959,-0.06582109497869904,-0.11480454744678945,-0.04261889473098158,-0.01054152380527858,0.008634056360681266,-0.013620710677248037,0.012388275094484813,0.010320155240954265,0.01177373082714826,-0.0018733210318437367,0.017897641926340657,-0.02341585608164203,0.013082917614706223,0.011298211924891295,0.012561112874125317,0.010995446010317966,-0.0015916648873933982,0.01943871543743021,0.024756187494272373,-0.00722639192417118,-0.017517412605705788,0.016929063354978063,-0.01732071447288513,-0.018866104015063627,0.021798419738419646,0.04594244379953085,0.02262498687849172,-0.018960002278036817,-0.0057842419392343399,0.022747108289518999,-0.008080694261278113,0.019737121788685014,0.005133377801974594,0.011110986856031452,0.007514589553118046,-0.009420349219712615,-0.0003696434788302625,-0.013170614634286598,0.010585691262514918,-0.032582982104120559,-0.007897938899647178,0.023277851821528449,-0.01467033056604645,0.03360226808734268,0.01408160576199609,-0.013893527565212496,-0.004116967079903313,-0.018438621344551304,0.03433122247337548,0.0027474869978273508,-0.012411673290845475,-0.019823282018429604,0.19867126416361928,-0.1563761689484452,0.07671557787161264,0.13112477380965679,-0.12137710461378014,-0.058456814253067219,-0.08570355766735645,-0.13456856264573223,0.13252595938115184,-0.07019166294096628,-0.007657504117653862,-0.12756379794453524,-0.11040530225954559,0.259186109528783,0.05201098409085091,-0.07220099026950393,-0.06983281261766465,-0.04192863562660865,0.07017549034326111,0.06109855902387453,0.12207851179639737,-0.1290549932768097,-0.037062932933632938,-0.18830304601492535,-0.057157706472417139,-0.08382018994462112,0.03666335445625637,0.0836108151045916,0.06618156763286008,0.1482499232184509,-0.12278524520359073,0.06388389751294593,0.13428009367720207,0.06360770700197743,-0.22740267812573937,0.12282945794297567,0.016151299424451618,-0.3559860779053236,-0.4539778200548324,-0.49700967877860738,-0.11297099225815521,-0.0013171265382563632,-0.034656408464048268,-0.08451801542760425,-0.25072913565649776,-0.10371942858489526,-0.00019247380647182197,0.07652706040084398,-0.2652630113350789,-0.2125385174022452,-0.19964659092886084,-0.16714662624326649,0.002302518637508875,-0.09441419264292722,0.051968321873043347,0.040372424237741,-0.09736241279514439,-0.06754229423581754,-0.1320603078410047,-0.2079694629236953,-0.0447307973574175,-0.18550738823255887,-0.06815062019091951,0.02933498192211088,-0.049027548457784907,0.04969952337645388,-0.054498565245821018,-0.15826502241506944,-0.14106681237509309,-0.16331149302899074,-0.11921475361318952,0.004309739890641927,0.06287161257894021,0.05174953073831933,0.0737765322013507,-0.27448021771288719,0.4363381823965086,0.0509729016741825,0.08456978851372757,-0.009836734635341559,-0.1647673778460107,0.0691657082768805,0.1356142494597791,-0.02544412022668838,0.0007522869958200448,-0.04954768895172779,0.15595852202088926,0.16187261136903248,-0.15304308660271574,0.1367568303159999,0.012603024854894625,0.06437094021549125,0.12218668239769209,-0.09589638879729591,-0.2067436309851294,0.01541642678440086,0.06327954834883491,-0.01373976446106438,-0.05614368722728513,-0.24023465383182708,0.12976397194451198,0.1276540333256729,-0.09439928227932375,-0.2575469120837214,-0.26027354829656287,0.24904766152012559,-0.04290651103061636,-0.27774516604627616,-0.38571395021100926,0.20097497421397265,0.2840873730291034,-0.6464265328309258,-0.5934907284508862,0.04112844806890851,0.2208132711788203,0.3356763469568647,-0.1368963568818566,-0.12572368273487984,0.0969161656710594,0.04313700659192724,0.10723797315448755,-0.08577841024361133,0.3193378956390935,0.041356899763112919,-0.16061569358603504,-0.03142474694191343,0.011892932051233447,-0.1495465426266063,-0.32265206747132166,0.0864296317487564,0.21054814930562688,-0.36892685369874275,-0.27261838625299369,-0.023683568868122737,0.027350272786475589,0.3617612819966557,-0.44091366970176606,-0.2993862223138671,-0.47687541357256776,-0.04621482574688036,0.29039328444639886,-0.23205858409091988,-0.15523353051732409,-0.006692277729973789,-0.04993664597128578,0.5125986558430968,0.24958857010360428,0.004010298579912853,0.07106723251551429,0.09066889533774279,0.3042313314217384,0.011503919213285384,-0.034228461294658649,-0.0014322296619921505,-0.0107431342818416,0.009640790807576808,-0.012540800638741716,-0.00903448714256405,-0.0017492084738432136,-0.004430318441334041,0.010413463124048655,-0.0036774094381949054,-0.022301446405667538,0.005296942496695025,-0.013719883760498927,-0.012791663321522699,-0.01679980816695385,-0.03812312749686718,0.0032451022726547389,-0.028337462689465237,-0.037083657656592019,-0.013964667427067427,-0.04312597652227206,-0.00823252537162073,-0.05659786682391045,-0.016898522725826788,0.15581494152717577,-0.016920790500024445,-0.08528828853184668,-0.03688350748069271,0.14983853140499793,-0.06769845288062947,-0.0653946369097765,-0.30858526842464459,0.14995074990492028,0.27124502914872986,-0.32768400344531048,-0.22968534825003826,-0.3613931486972824,0.08817586082748902,0.22162793271954513,-0.37182872234721905,-0.1838535070818923,-0.06948263249485642,0.06877602265804585,0.2669565630509377,-0.17880480665792118,-0.008974171221333497,-0.18171055308514234,0.33414670212398747,0.15868702140634406,0.1643197175622584,-0.18670988246659915,-0.157109607831674,-0.4244917158323585,-0.25561764776040216,0.0023208651771463495,0.10190446033770023,-0.16965912622915703,-0.19996621519370254,-0.07873419614074864,-0.09971448222760163,-0.07287654628552012,-0.3030082168808892,-0.24501970966083379,0.11543767357123425,-0.11693064888685373,0.07162336299786104,-0.07375343955965531,-0.1492046392381474,-0.1505094474156664,-0.07475974306829853,0.01592524198619336,0.15198474956711503,-0.14129656436460173,0.008190033732759098,0.09183884165946745,0.4492244727654173,0.1726110373793775,-0.11130800780641914,-0.3580666950088602,0.168560748688196,0.5914272019479832,0.18520039247163515,-0.11151349677264404,-0.513274206055919,0.3131560698389582,0.23119839623951336,0.09266399300224328,-0.38472934935642297,-0.4525867692191896,0.15991024869877083,0.2455436776843168,-0.04086131437465564,-0.24058058660953045,-0.13782962714919243,0.16088309430234677,0.17369682675184199,0.08062781110731683,-0.2966849914098525,-0.36418228636008928,0.11443125331093857,0.13765419466280966,0.12684287206394383,0.022536963740659466,-0.13528551531888356,0.12703908652965968,-0.02195873589274106,0.06344029739312637,-0.055080616477389678,0.008117258678237987,-0.050741234073711029,0.09789767898447305,0.12311576409888468,0.041181211840921178,0.17528889146234725,0.14324519728430397,0.09692360558723649,0.07745104590327282,-0.0033909355787188077,0.18712368401321043,0.05690408342912217,0.0022114064244683968,0.007022929084485772,-0.08306117598681839,-0.15771770356804777,-0.11565116055226217,-0.00632188880205038,0.015278371146439494,0.04964570763650963,0.127659579857142,-0.11080738497371735,-0.09605092920133741,-0.08039811864778769,-0.21220148696971778,0.03388330157181794,-0.225175811200778,-0.2743192207344709,-0.16046307097414629,0.013654140651897363,0.034955131918413529,-0.21357987870274859,-0.16827329719785093,0.08045461348076839,0.09295581627896901,0.05492520173230124,-0.1218772356735424,0.1658937018678635,-0.16344676011136417,0.006121207955377601,-0.09964742658266124,0.1917575567901396,0.1940869561949087,-0.1448293131200247,-0.20281541520508554,0.11659429805288933,-0.27277017127206229,-0.3826305264278039,-0.33419580274969248,-0.04599851482193178,0.15297249239604653,-0.32403955556554528,-0.27575418558807449,-0.2368133250722887,0.16270254476852728,0.38595554338054419,-0.29234253583353217,-0.0628390606457617,0.0043412717963245959,-0.06824257971898838,0.29417393153338786,0.13157210700945669,-0.04054666634274336,0.18604291887913214,-0.05106726345355046,0.03431196063431066,0.16324625015494102,-0.2098690174796488,-0.20704464118065264,-0.21116061057926989,-0.028533131138298783,0.0300098213831268,-0.2788221804055694,-0.11422922344388884,0.3035457282482624,0.07613840586975292,-0.4930988377495582,-0.274301013590244,0.00016308591657954223,0.302934354685292,0.3177822329116739,-0.29864682203046236,-0.0014438494822491717,0.034839798086151629,0.03272083291672329,0.16592317222248546,-0.38678191352633198,0.09939727880938315,-0.1582434554116245,-0.002160884462347226,0.11678382693484506,0.01553814157955818,0.014491609536459486,-0.007548029717135123,0.00004922441703428159,0.002817525967142302,-0.00815830801221983,-0.02470153375613283,-0.016413254537430707,0.03597515721754653,0.009403654207886215,0.0026383637366101349,-0.024117140253922685,0.005341465226233831,-0.021316280761075863,0.0007069620421400366,-0.016256193090034924,-0.03355876527341097,-0.004699791420649017,0.008246940583740606,-0.01140547670614685,-0.009471063083229878,-0.02752970827228104,-0.004909283043053359,-0.008590052097854677,-0.008846437920961988,0.008230087200296985,-0.00212559459822747,0.009143436410882156,-0.0037092717718198349,0.003350046301047772,-0.026162981692300227,-0.025826555988951045,0.018861938528639666,-0.004615556511413607,0.007730886269341066,-0.015556618923650512,-0.0280364520792483,0.009672929954317853,-0.0013626744303670096,-0.017845244072588193,-0.02622382738261582,-0.0012246334134801993,-0.012798633989100675,0.0039899759662906,-0.02545228114962909,-0.010095361300258586,-0.0038053496327873608,0.001361808466905455,-0.017879346860595007,0.006972358332960809,0.2024924171703538,0.20029482745690756,0.0379441847629783,0.06128115606456432,0.10649863268915179,0.1493918552538893,0.18891458914061338,-0.13269397277469076,0.03722658389247994,0.00786176985945327,-0.0657132968457193,-0.21421789912962908,-0.10193531891424937,0.0779827835939313,-0.08828425478535333,-0.1142963823811542,-0.1289396573925919,-0.1630434685357648,-0.08669360042532676,-0.0944786240710437,0.03359618832551429,-0.027465432502124057,0.023545843167537069,-0.2193286447637515,0.05291015200890889,0.31742247922962676,0.10705928918254067,-0.08314480076017786,-0.14501935752408913,-0.13244883709469683,0.18903581578066765,0.04919372367021299,-0.09659842838912483,-0.08268902520186876,-0.022353545182957736,-0.3593191339462712,0.2083739786161275,0.005800516245606948,-0.13596517742840248,-0.23105993214768459,-0.029653547887339854,0.349267006489218,0.07135290533473261,-0.08663072676156701,-0.21103232324021396,0.09314044975620377,0.11641556145824042,-0.17411660059233273,-0.041761033711245228,0.25726612285004266,0.026418189012061917,0.22325272000509897,0.04070197652334042,-0.03326933798534779,0.005040907848365356,0.09635127870047028,-0.0571793376472361,-0.2318959826370134,-0.10186945503594466,0.09957370908847259,0.068554406830223,-0.02008680706235713,0.09436168736952877,0.02313677222037888,0.009594928522735339,0.003998837715950086,-0.016683166688970513,-0.1716152230104377,0.06942222068597252,-0.11640618810466118,0.04065958794591837,0.1059076326317725,-0.07103461686729557,-0.024827710340390598,0.004891279423426591,0.4243247328642829,0.07042683424666738,0.03680098712497768,-0.0038641557709132767,-0.19697843377816103,-0.1314635206756081,0.042247585446865899,-0.08999719149317809,0.06994696111047842,-0.07591691246534969,0.12055266845399475,0.00249357425436333,-0.09323969932041025,-0.42625407061874168,-0.2411852126154265,-0.15805250950464784,0.10430744082937327,-0.10474671266438726,-0.08151162243014662,-0.21161780586057034,-0.0848084729099149,-0.051284192015497599,0.32580812638076286,-0.0816334667258798,-0.08465602425582554,-0.024585014606275277,0.06084618268971746,-0.008828828625769956,-0.31268890100128057,-0.28898839958776198,0.3312430677449274,-0.19900420064246167,-0.08754790246629861,-0.39529724065349289,0.4114291063421812,0.055045511875221397,0.06695851961365891,-0.6460971647889566,0.28948137813982235,-0.06847507772876901,-0.27526357917503649,-0.14796834830686907,-0.2976300142155776,0.21266206338501535,-0.10095472303806823,0.15774728492234084,-0.0938109519807126,0.15099811615949086,-0.013375047255630159,-0.022237127836963197,-0.19190589372175755,0.19572377515314699,-0.1927024560346772,-0.06553741604681268,-0.19073790443102893,0.19758030029136099,0.21090289179765285,-0.1071343799308179,-0.5147437042644144,-0.14748129479190554,0.3983574621799573,0.24666437991157448,-0.23531209696884135,-0.2582087131746899,0.12290210358443109,0.5867201605965252,-0.048055487900351318,-0.39458899445666059,0.19759644269386868,0.39479480126357116,-0.22883952414082787,0.014420502850366,0.06601221305724055,0.22838903553069929,0.0550826370752563,-0.26946727608982065,0.001798266654493526,-0.00959916433605068,0.007115045006275011,0.05981328947092762,0.02859831982327314,0.010621855827791753,-0.032167542726962369,-0.004808550037760897,0.032864881782533886,0.005003219162170395,0.0243724311631634,0.001439179050778193,0.014185603672432608,0.028465285342160766,-0.025146314921140054,0.007273848446278597,0.01784100541140661,0.01930817819674182,0.06744745009219398,0.01906891190594928,-0.016077926247735579,-0.008222962818723902,-0.007534119012982756,0.03560540669475422,0.007972026320095536,0.07032324503038205,-0.12456964136546224,-0.3640015870642695,0.11033379081475549,0.16346537464700185,-0.15661229243142206,-0.32178504423831036,-0.3332122442526863,0.021908128729247839,0.023051807573726703,-0.08279119924915272,-0.2656337382696768,-0.2600350982116111,0.26527125779596796,0.38133462508656876,-0.20207153268304249,0.14124230339676467,-0.031158832656149505,0.18602938721986637,-0.040932499186953078,-0.05053960378809808,-0.22994914342417084,0.22523041111249307,0.3133476620624782,-0.18086041893989178,-0.07465561091857316,-0.0716405481798962,-0.6002897263172073,-0.07332786888204153,0.4953034482412532,0.09440755850310141,-0.33827079710939136,-0.66851525153249,0.07769788244737092,0.4964035172856638,-0.0052121607018875029,-0.5245229075192809,-0.43369316861813536,0.3897015037408881,0.35840458712434755,-0.050275356689320777,-0.18628175581561927,-0.01711139741052942,0.4005040427180276,0.019647298457821158,-0.00834873452770739,0.07431202096806923,0.3258190213622101,0.0512814786819496,-0.34569850521326275,-0.09642695647152869,0.02731055878117376,-0.19490896977326264,0.11546802942301879,0.1039228677109899,0.16291791333897144,-0.010565744536080677,-0.23323574854713456,-0.02939680601717515,0.17003032956863763,-0.12444726532311873,-0.09698527604720841,0.09502238298172892,0.035229651934731997,0.10415366094410768,0.07205736816870238,-0.08158142164192352,0.10368700533312765,0.29260888029159179,-0.004828959647039214,0.0026432054662348374,-0.30795719391666379,-0.055346617846719309,0.1956768329532049,-0.060981564032360557,0.09068506289496806,0.05892528710902455,0.013148665298111486,0.1526436297993819,0.037544885191427648,0.07797877489767939,-0.04921095566559506,0.1496671229883265,0.17101578384464018,0.003040811104111499,0.014938477792199468,0.2077946185399,0.2455922811930244,0.014349345961113794,-0.004918713655610404,-0.1092752857785086,0.1930929820264143,0.25623013331209396,0.08274054379295906,0.10021539679214783,0.06630596499711322,-0.041297309356441967,0.11275828822372147,0.10249153233067278,-0.05220260771009885,-0.11720395367299137,0.1850785059300781,-0.017717318658962739,0.04163004299712851,-0.13245279216198967,-0.07479515907853478,0.07394022793880283,0.0007787545034058689,0.18263283741835507,-0.10491874679511044,-0.2059808981247864,0.026199368627671309,0.214488130294167,-0.006932285186220148,0.1568316884067277,0.006285183680441236,-0.17871251515017626,0.12608769563145537,0.036311336252717287,0.18401496811658447,0.004874597307392733,-0.3832764853399894,-0.1784183159997149,0.26852716667723156,-0.140896360355582,0.17395505955770408,0.08212349651662827,0.025574392876100788,-0.2608195485049554,-0.007582614769204293,0.02385356559176429,-0.09639550055034636,-0.22103289955661455,0.14538018786642996,0.12339689859586055,0.24328590162300144,-0.13015235504831217,0.0182244864254566,0.08327771227129254,0.2081697935663396,0.12994239026459934,-0.14831616090594816,-0.1688829139685217,0.1409127341587241,0.08685763025749607,0.029572398147697664,-0.03631055017559423,0.020587990290197989,0.03870036118705648,-0.30998858158110506,0.2561760149831252,-0.07543418739905733,-0.3163337758310228,0.1510178806151804,0.07785518464386578,-0.019175508309306218,0.24894463491086983,-0.13555053025043638,0.21985463302037376,-0.1170743133902793,-0.2944981135913583,-0.0035365695290576254,-0.017794317237194936,-0.1244621709031821,-0.1243330661683463,-0.15048094407651955,0.12583072392957563,0.1538870321670153,0.12600277491565826,-0.15488711364327885,-0.12407077060345638,-0.019230807299432208,0.13970467180140345,0.1612388182731736,-0.02081648286328401,0.026184403274365509,0.001425103328746267,-0.0073850761406660399,0.027375950686932716,0.011373393753939547,0.0013648882741977116,-0.008462397087498349,0.024561720959839427,-0.002808224396516005,-0.011679470167103294,-0.0041271349594589469,0.023406056291479347,-0.01684570759359034,0.010388466451204259,0.006110177763513809,-0.009907560192016314,-0.015446041505056765,0.029751128221221135,0.0077171767426052989,0.021000786933235796,0.040013764298614497,0.010243738720239022,0.003109727450644544,0.051854802196186159,0.006539079872160117,-0.024520607406832076,0.015239741644483562,0.015464250505561894,-0.004255466012356146,0.03624146144297857,0.022605466255647426,-0.02508397575838939,-0.0021205063685456107,0.013779346284492022,0.032381160136955428,-0.003283033644838617,-0.009088438340448856,0.0013737145874980083,0.016855776142625305,0.0047487508300670358,0.0021997597625983778,0.024920630316534847,0.03711792975381543,0.024185657861535659,-0.004905371078289256,0.004360027029984437,-0.023245703750341658,0.013819454093182225,0.0047640461121456248,0.017175501739142484,0.1180293957611934,-0.03659123407339534,-0.06300220239681204,-0.052730846021555987,0.07459465705439567,0.13244921681065048,-0.057411766157802978,-0.23273076661496856,0.17984121195807907,0.1999772130374505,-0.049750135175730968,-0.07474141934750515,0.3700258335043493,0.04173325370899542,-0.06768675283279241,-0.07676883421849328,0.18297248176741263,0.4511228192335053,0.13883618520166214,0.1953002385295709,0.05140101556904649,0.19443024865225623,0.20226436109808949,-0.07578850179315119,0.1891855830496553,0.25290391933687808,0.06551634651716142,0.007352702060367235,0.15857258535579683,0.017194819955114055,-0.336874024524228,0.23683472626219669,0.532854443939366,0.09608026010678421,-0.36451645469404456,0.16487985930426533,0.11682970208786761,0.5151432684524142,-0.15841686228452826,-0.46447768917505558,0.10125474577682979,0.344750840529387,0.20527196409062524,-0.3930901416442156,-0.13145704994965985,0.20893269350016159,-0.1912110810088153,-0.08914473448454354,-0.4014617863204411,-0.13101324680391647,0.2167809694625609,-0.017738543706703224,-0.2244561276055198,-0.05471216415551759,0.054346781787639148,-0.13292171573811774,0.13839528902120927,-0.22161404712518568,-0.07115019011939021,0.22646443555611926,0.2018692729292661,-0.12319890581067883,0.1536116258833788,0.23855753281310625,-0.005529977089611413,0.11734789152735018,0.1909397877261879,-0.03997262825348672,-0.008325063706683836,-0.14954836757522078,0.04301887114015512,0.2879878564245779,-0.061802681405829628,-0.23450477935540338,0.06506726946820016,-0.0709142444384809,-0.018048948777191953,0.10175364237444494,-0.1940662547045104,-0.1918889326247099,-0.005840811977091671,-0.1312258748700852,-0.33670609724076897,-0.09994985293222239,0.15132459137966187,0.08299020958805023,0.15218593804871653,-0.19074832855735664,-0.07651508566602609,0.05090602624781323,0.2859666055768232,0.05363785378791417,-0.038607951208295267,0.09364459231763839,0.15702149858102319,0.12865384565503394,0.1963152767780323,0.021066570663874599,0.11328305424434547,0.054311763574498388,0.23395413996672244,0.08101850139234712,0.3571856674183612,